
razani -0.028090805 -0.010749793 -0.05432633 0.008271374 0.07117608 -0.011961113 -0.031093512 -0.0055162525 -0.07362671 -0.10017313
locaux -0.1343214 -0.023464845 0.12138285 -0.024804968 0.09456422 0.030829841 -0.079615146 0.054928917 0.15092042 0.14630814
réglettes -0.014292493 -0.1078055 0.10499546 0.0026681311 -0.030498516 -0.05820812 -0.13953827 -0.035883684 -0.016926348 0.049986992
scénaristique -0.07125677 0.010891965 -0.032732576 -0.0005982829 -0.093384765 -0.054220214 0.061786205 0.050862268 -0.051880106 -0.028475491
neuronale -0.051648624 -0.07472981 0.0017175223 0.0053662118 -0.063750714 -0.1020679 0.073589824 0.081139006 -0.11894822 -0.063221194
écroule -0.14590743 0.029157331 -0.12146264 -0.043407213 -0.029183527 -0.060350053 0.0008280377 -0.045421332 -0.021935213 -0.055847093
boffin -0.07593737 -0.020678136 -0.014603272 0.047581438 -0.05128685 -0.11251776 -0.1568807 -0.036290824 0.0242399 -0.08351301
certaine -0.1605788 -0.026394602 -0.048269257 0.0037903425 -0.042109076 -0.03223276 0.026975812 0.0016462388 -0.0447989 -0.08317577
ulg 0.56357944 -0.41101605 0.09883984 0.0067576542 -0.0044483542 -0.04822992 0.2699106 0.060877148 0.21895956 -0.23838082
premier -0.12548143 0.040623486 -0.04684574 0.06738147 0.005105192 -0.071534805 0.00012438465 -0.017239705 0.023296487 -0.025052622
sérieusement -0.09937352 -0.04317245 -0.04162476 0.00499352 -0.016693179 -0.029373776 -0.015892545 0.0181877 0.050904285 -0.05774952
relever -0.17681324 -0.07914975 -0.02423979 -0.016555307 -0.010255367 -0.027863383 -0.004315242 0.015560124 0.035029374 -0.038797244
exponentielle -0.06212809 -0.033230804 0.033077672 -0.0047361767 -0.0023377207 -0.048936244 0.01608719 0.04028745 -0.01649443 -0.060603768
établissement -0.04960873 0.03560049 0.015906218 -0.0010300241 0.05874645 -0.026374703 0.04729467 -0.0045502125 0.020670412 0.031256627
progressivement -0.09437493 -0.0316717 0.00026813228 -0.014987648 0.033655714 -0.0444815 -0.014010878 0.003921907 -0.006008365 0.011448192
réformes -0.11615523 -0.06425873 0.040015202 -0.07510534 0.094695576 0.05471987 0.018258283 0.14546919 0.015659908 -0.076290846
tonnes -0.075269066 -0.11182684 0.0027319924 -0.0025970668 0.045881312 -0.16821851 -0.2260932 -0.045955956 -0.00094466953 0.01835001
réussissant -0.098711185 -0.024195028 -0.06452101 -0.008860131 -0.004792083 0.010238168 -0.016981399 0.02995168 -0.011646365 0.024942875
aborigènes -0.053592462 -0.0064215725 -0.018624611 -0.077977344 -0.0023355691 0.05047906 -0.11708885 0.07676772 -0.046302717 -0.005319148
products 0.19342662 -0.09570058 0.007849624 0.10138674 -0.036780477 -0.07789068 -0.070582986 0.029192066 -0.008762751 0.05872003
particulière -0.08486854 0.002853758 0.010920301 -0.004609184 -0.0040487596 -0.02834115 0.027203795 0.0013742298 -0.036861956 -0.014674094
répartis -0.09073118 -0.008163825 0.11278 -0.02267312 0.13371277 -0.030833121 -0.142843 0.024555977 0.041891713 0.066415876
période -0.14472088 -0.003023381 0.06069936 0.0016055952 0.09180784 -0.0501924 -0.022701073 0.006622521 -0.051206242 -0.06937465
dérivation -0.054064482 -0.022189187 0.044413865 -0.014838828 0.025680462 -0.099340886 -0.0031218661 0.013299338 -0.10517388 -0.00751159
transformer -0.113465324 -0.039637633 -0.014056432 0.02042516 -0.056273647 -0.019653657 -0.008360743 0.009726874 -0.010190201 0.0073115113
documentaire -0.049308095 0.045782827 0.0102912625 0.027631436 -0.045223188 -0.007479967 0.054857116 0.034735557 -0.007676963 -0.031187242
août 0.06519687 0.11156907 -0.048835974 0.0347493 0.3079431 -0.05459538 -0.12699708 -0.023947317 0.061636236 -0.13326463
couleur -0.07569872 -0.01255759 0.06220644 0.03710845 -0.09998026 -0.09730336 -0.07074735 -0.070284665 -0.117184326 -0.018312605
mesures -0.1337586 -0.10063701 0.115987144 -0.015628427 0.05728897 -0.005476733 -0.08032284 0.1361731 -0.0013155391 -0.03123073
espionnage -0.06330347 0.02338184 -0.01000032 -0.02501849 -0.058084276 -0.025015553 0.030484935 0.09793348 -0.010716061 -0.025843943
" 0.20728172 -0.089087695 -0.14700806 0.15904059 -0.18432961 -0.026931718 -0.009253031 0.15294242 -0.15567183 -0.3601681
horoscope -0.02322989 -0.043652307 -0.016562328 0.021847889 -0.07074247 0.008413676 0.049456332 -0.031196348 0.033168066 -0.09297516
1950 -0.052997112 0.258039 0.011177345 -0.058845058 0.2603997 -0.045570537 -0.11032529 0.03957019 -0.101630196 0.07801809
tyrosine 0.077240184 -0.09385496 0.020917319 -0.0068366146 0.019861363 -0.13802812 -0.05679265 0.016602272 -0.108083345 -0.00912374
prenant -0.19297592 -0.018373955 -0.03701542 0.028392613 -0.017623372 -0.020303285 -0.049141582 0.01265697 -0.012529088 0.0066991625
îlot -0.1276145 0.1647884 0.0648668 -0.02515933 0.04377663 -0.19238165 -0.0032034419 -0.2646393 -0.22890472 0.100378335
circoncision -0.060196575 -0.019825235 0.013287833 -0.033145823 0.0010611659 -0.016552934 0.036747638 0.01971665 -0.045329757 -0.107713446
perpétuité -0.07786527 -0.0066728476 0.0017029751 -0.049351864 0.07184337 -0.006840961 0.008359981 -0.012845733 -0.027742539 -0.054612342
classée -0.046313852 0.056277364 0.023996634 0.02438738 0.09418832 -0.060501453 0.0002424866 -0.032681976 -0.020547751 -0.0061815483
inégalé -0.10197447 0.001044482 0.030628085 0.012038162 -0.015264238 -0.06815309 -0.012607216 0.012013043 -0.030391198 -0.029811542
joue -0.25502563 0.10961774 -0.1591147 0.019938003 -0.23208532 -0.13971938 -0.040079556 0.058793962 0.018318485 -0.08363726
profondes -0.10940864 -0.069930226 -0.009518696 -0.08597439 -0.013383445 0.023187567 -0.08692273 0.05189854 -0.04227643 -0.0056814356
réunit -0.13710372 0.05355611 -0.036215927 -0.0085215205 0.06410361 0.017200245 -0.013724518 0.036596168 0.028397506 0.06715967
soupçonne -0.1335147 0.0036731753 -0.13524728 -0.023101889 -0.06588217 -0.00017418526 0.004426781 0.04615497 0.037557803 -0.060912203
loisir -0.13988855 -0.038117237 0.07751929 -0.008784506 -0.07123083 -0.038366344 0.045461733 -0.05133551 0.07000872 0.02851941
up 1.0229346 -0.7759394 -0.49412784 0.6198239 -0.40947878 -1.1715981 -0.47846237 0.26156104 -0.030416299 -0.13344014
nine 0.21545327 -0.0029682368 -0.179941 0.13240394 -0.19193947 -0.24689889 -0.38279974 0.048768267 -0.13589036 -0.10079672
disques -0.068060994 -0.024172574 0.057907876 0.045007035 -0.078135826 -0.018602481 -0.19265246 0.0796023 0.0040899655 0.061022695
révèle -0.2188592 0.039099347 -0.12811905 0.011854726 -0.065209866 -0.030405564 0.056737818 0.0742402 -0.048283238 -0.045564305
spectateur -0.07152804 0.013736261 -0.077234015 -0.01027593 -0.032101955 -0.03322313 0.021217782 -0.002204645 -0.010169791 -0.070865914
activité -0.10820177 -0.010453123 0.10542644 0.031086301 0.058150902 -0.06632018 0.07435855 0.009425583 0.003951532 -0.009439789
pokémon -0.01283001 -0.12730749 -0.027106717 0.07068777 -0.14654565 -0.09407538 -0.100413226 -0.024166476 -0.014067456 -0.074717514
britanniques -0.055710446 0.00464041 -0.008665837 -0.052793972 0.0159791 0.0047534225 -0.08865224 0.10680508 0.028639428 0.0404536
major -0.025815926 0.19482969 -0.2072295 0.03115795 -0.021678213 -0.087517776 0.015941385 0.13901925 -0.011169125 0.021918835
23 0.95839727 -0.23081198 0.043899924 0.24047945 1.0570817 -0.24993728 -0.7788527 -0.19701907 0.22080714 -1.0554818
vocalisme -0.04332235 0.004039182 -0.038370773 -0.039345164 0.019256655 -0.0586218 0.006195875 0.011469497 -0.12958065 -0.08024795
celui -0.19659033 0.067540094 -0.05601718 0.021130294 0.009822496 -0.09644391 -0.016631056 -0.031440478 0.029905688 -0.09217511
sachant -0.1472376 -0.05858332 -0.059799388 0.045571037 -0.030376112 -0.055120178 -0.03188337 0.0034007938 0.08129989 -0.03439797
double -0.14111905 -0.015865447 0.03701818 0.08312394 -0.052967288 -0.15193328 -0.025725698 -0.002052471 -0.108612716 -0.056261804
nâ² 0.0094877565 -0.0030256996 0.017925091 -0.025474066 0.0031386358 0.030024663 -0.023382824 0.012685522 0.009627182 0.015632873
45 0.87781954 -0.18740067 0.26866785 0.3496397 1.0193869 -0.51074404 -1.029341 -0.3067162 0.23982282 -0.9223627
gènes -0.1359213 -0.14018686 0.0275267 -0.038377807 -0.034608953 -0.075056404 -0.17156172 0.19664636 -0.07869014 -0.10903349
machines -0.07487272 -0.0536373 0.10105674 -0.0071124737 -0.02144658 -0.025563646 -0.14634022 0.02978969 0.008380442 0.04154603
sont -0.30413336 -0.18732123 0.049890526 -0.08188668 0.07889327 0.13522872 -0.46286452 0.1297558 0.1860153 -0.018463781
heidelberg 0.045889813 -0.061440874 0.016386218 0.00050550204 -0.011960772 -0.04167809 -0.029397896 -0.01379737 -0.04458173 0.0019913001
ôter -0.35046992 -0.30837354 -0.13595112 -0.1378592 -0.1761075 -0.06367638 -0.025677172 -0.07842795 -0.13824187 -0.11363338
rival -0.11198273 0.15724474 -0.27882725 -0.027043037 -0.012805169 -0.12798586 -0.0053607672 0.059398152 0.03446065 -0.07300919
ouvrage -0.11883368 0.06946723 0.016673632 0.004204832 0.042096876 -0.0131787015 0.06436594 -0.015284325 -0.07467674 -0.09225803
maurya 0.09288403 -0.10158982 0.01812145 -0.0629041 0.08137604 -0.039282236 -0.060373247 0.052946806 -0.2014102 0.021690955
excellence -0.08431897 0.021972798 0.03598739 0.0064559863 -0.024908902 -0.017469997 0.08295283 0.020772832 -0.0071571874 0.0039156633
eut -0.5172405 -0.013838649 -0.40726793 -0.18048465 0.20264569 -0.0049062967 -0.09477155 -0.0608192 -0.21866716 -0.18108703
ukrainienne -0.045446854 0.008885764 -0.012786524 -0.03539431 0.0131561505 -0.04146409 0.028883113 0.059224386 -0.02082541 -0.01720596
entière -0.1372199 0.008757003 0.03271257 0.021322053 0.022773094 -0.00085752923 0.03127242 -0.04211475 -0.03000313 -0.034167215
façon -0.26430535 -0.042486347 -0.029443584 0.031182293 -0.10010119 -0.075181894 0.013164043 -0.011069732 -0.027865805 -0.12688212
standard -0.050748535 -0.006601469 0.06933647 0.087944195 -0.03308593 -0.15374911 -0.02647595 0.07409801 -0.022400532 0.024478521
nielle 0.027553422 -0.08460238 -0.022866175 -0.16154002 -0.050994303 -0.083361976 -0.05518501 -0.08469447 -0.23801143 -0.05797232
fontenoy -0.00022140786 -0.082092285 0.017239664 0.009759235 0.046019528 0.011672456 -0.018203491 -0.14131792 0.020243412 -0.010799702
séparatisme -0.05509326 -0.0079603 -0.032950528 -0.082804464 -0.0054770797 -0.038069427 0.068316475 0.07784384 -0.029048009 -0.05705182
semi-minéraux -0.05734459 -0.026281595 0.01355065 0.031461257 0.021943098 -0.035935592 -0.03158626 -0.032370545 -0.016678948 -0.00034823947
forment -0.1458059 -0.008533704 0.008289423 -0.05011379 -0.0035517565 -0.008146144 -0.10646914 0.06077635 -0.047914784 0.050893903
c15 0.58753806 -0.33854944 0.018752957 0.13228476 0.07871704 -0.4011683 -0.14275128 -0.25159353 0.016656976 -0.09975949
finkielkraut -0.001032656 -0.077442124 -0.052708387 -0.088588595 -0.004106496 0.03996549 0.041017044 -0.034164757 -0.009640169 -0.11236698
diverses -0.1139247 -0.07667887 0.10195721 -0.013908068 0.018069407 0.090749696 -0.08884916 0.061913215 -0.022942426 -0.0051261582
lesquels -0.10241113 -0.024769116 -0.002516852 -0.0028937089 0.024450146 0.050613727 -0.08020817 0.08303489 0.028869009 0.0009517062
neuronaux 0.0011643469 -0.13837422 0.02406548 -0.04852162 -0.08239447 -0.044989385 -0.07618688 0.1896391 -0.06658004 -0.008177145
cassé -0.1604135 -0.0731812 -0.044457704 0.059089974 -0.12468357 -0.18140197 -0.06083984 -0.13946947 0.03903903 -0.06877808
festival -0.034939125 0.078619555 0.022357855 0.029207375 -0.057570256 -0.011661061 0.0074436413 -0.04471452 0.044177037 0.05302403
distinguent -0.08808734 -0.012896339 0.009382091 -0.050501455 0.0013644658 -0.009243346 -0.060887665 0.08950886 -0.025816206 0.039492108
maghnia -0.031673077 -0.11314698 0.055046797 0.05220219 0.09885488 -0.0631542 -0.12827767 -0.041233923 -0.097467355 -0.10735408
constituer -0.12631246 -0.055856746 0.034230072 -0.0040163994 0.0042464593 -0.0239577 0.015801644 0.04487098 -0.00891113 0.01093432
1988 0.018769711 0.29418457 -0.0037335418 0.063040845 0.28517565 -0.05171063 -0.042512067 0.111388996 -0.02919403 -0.052536335
selena 0.15027842 -0.16343336 -0.16871844 0.009587723 -0.149025 -0.025299568 -0.117162876 -0.09326662 0.020645678 -0.17744768
uniques -0.090618804 -0.10193407 0.08282462 -0.020220745 -0.005051037 0.04695505 -0.16878477 0.06315689 0.028284986 0.06839845
sera -0.31465977 -0.06790547 -0.13930231 0.20148508 0.019379478 -0.18413746 0.10381661 -0.12161559 0.07844271 -0.0346006
ibo 0.4481411 -0.16329688 -0.35781908 -0.29101107 -0.08047214 -0.11827916 -0.0854215 0.18977769 -0.056166463 -0.101230234
sensations -0.07031842 -0.068333454 0.019619124 -0.003940958 -0.07940093 0.006404145 -0.08840952 -0.011615938 -0.038210023 -0.009778856
analyser -0.14044449 -0.106833406 0.011346987 0.0171905 -0.02046282 -0.03585644 0.019528925 0.08313576 0.021712672 -0.05036105
deux -0.21194164 -0.07570639 0.088976555 -0.057093553 0.09400399 0.044757403 -0.4351525 0.03884649 0.09443782 -0.07760814
abattu -0.13782488 0.09500624 -0.16062413 -0.07164472 0.047461186 -0.08752384 -0.030851541 -0.057931572 0.045154296 -0.060373254
téléchargement -0.026019491 -0.023579985 0.023967981 0.060124367 -0.026484743 -0.024045793 0.010015694 0.036556583 0.008620849 -0.01158367
dark 0.09787203 -0.11615713 -0.16409235 0.21132836 -0.4039788 -0.20139536 -0.2247251 0.14926052 -0.24439815 -0.035494756
jihad -0.10647866 -0.088695616 -0.021641877 -0.098336555 -0.012635209 -0.07171576 0.076349005 0.11572778 0.008113911 -0.19748665
technique -0.07634464 -0.004221052 0.065014176 0.036787227 -0.045596894 -0.11144308 0.06769885 0.043239947 -0.026034713 -0.016074067
possibilité -0.09921501 -0.053329628 0.015767498 0.032681175 -0.0017198272 -0.022768721 0.007592246 0.02118732 0.014806679 -0.0035872955
sarah 0.14570084 -0.012624595 -0.14872262 0.07529316 -0.18047175 0.019573085 -0.025670834 -0.13839966 0.031378936 -0.21555698
adjoindre -0.16499697 -0.017200716 -0.01635724 0.018869106 0.028233884 -0.0044775754 0.011377975 0.025547378 0.021749392 0.049097575
hendrik 0.1047353 -0.040330127 -0.05029138 0.028282322 -0.078364715 -0.02164106 -0.013693786 0.09896287 -0.07246239 -0.10066249
chuté -0.17984295 -0.014273375 -0.07048529 -0.03552808 0.1660962 -0.18844861 -0.18022618 0.001612819 0.14192057 0.017237991
provocateur -0.060309358 0.029637575 -0.06566798 -0.00956201 -0.08774103 -0.010937925 0.061589833 0.026688311 0.009550111 -0.105119064
puis -0.17822996 -0.0025546998 -0.115268424 0.067588404 0.06514691 -0.04870908 -0.120896935 -0.06966523 0.016204296 -0.0015201023
reprennent -0.12836957 -0.0014384405 -0.0034420325 -0.02788251 0.0009725127 0.011259266 -0.08725725 0.061840754 0.01954644 0.028038647
prières -0.1199701 -0.062838614 0.024291355 -0.06954482 0.042200353 0.15348142 -0.09209548 -0.018671164 -0.055971023 -0.033925854
bon -0.29786444 -0.18652153 -0.13971259 0.13575329 -0.25463676 -0.13546947 -0.04014036 -0.23309818 0.2589564 -0.27196655
publier -0.13479453 -0.026124578 -0.002089809 0.05047235 -0.0037254128 0.025270656 0.015013191 0.069851056 0.08028132 -0.06089182
théorie -0.15819745 0.010719573 0.036453843 0.0007582605 -0.05057065 -0.044889778 0.046637766 0.11544901 -0.107526384 -0.14585571
contrairement -0.09238573 -0.002643086 -0.028564751 -0.007921903 -0.013427313 -0.029702425 -0.039694604 0.039203197 0.042565495 -0.032142743
forcé -0.24582987 -0.012453347 -0.14802773 -0.038766444 -0.048100118 -0.08210695 -0.014960144 0.07335247 -0.0010579843 -0.09827125
ongulés -0.028835505 -0.09993499 0.068234146 -0.18598603 0.09577211 -0.04294088 -0.1095502 0.0148327565 -0.036815513 -0.046881266
fabrice 0.02685991 0.01451833 -0.021888664 0.022908334 -0.045157015 -0.016227197 0.032173045 -0.14886728 0.13247752 -0.0693393
2,5 0.19936827 -0.03803809 0.29316372 0.12031712 0.446961 -0.44524816 -0.5900996 -0.041642494 0.04330337 -0.14023757
renvoyés -0.117166 -0.014379127 -0.028362634 -0.003215182 0.09177209 0.048402194 -0.07504481 0.09607817 0.050717823 0.015081298
palliano -0.09009817 0.018572353 -0.00168653 0.007748989 -0.017175626 -0.049167074 -0.078650035 0.005619337 -0.017055027 -0.114360295
600 0.10842727 0.029237233 0.25675848 0.18246306 0.5233234 -0.26657996 -0.70262635 -0.094243884 0.12997445 -0.14809448
22.571.000 0.007852338 0.03557033 0.00518672 0.018802965 0.019866966 -0.009233169 -0.07426288 0.032847248 0.0026559643 0.0013225283
unicode 0.021677554 -0.14884181 0.020754855 0.035816837 -0.07603898 -0.163907 -0.038182195 0.09846091 -0.096711665 -0.09544802
leçon -0.2273507 0.031506322 -0.010486959 0.045237362 -0.112113655 0.025946725 0.09574047 -0.004083313 -0.036733624 -0.26319054
révolutionnaires -0.06464468 0.0014427454 0.003672395 -0.050209105 0.014162948 0.042984296 -0.03392238 0.04778725 0.01113153 -0.0101131955
9ème 0.04695175 0.07843965 0.045657218 0.16029015 0.16578867 -0.0617522 0.018102337 -0.14410834 0.091302715 -0.06807014
porche -0.05524782 0.04905 0.0113119185 -0.033965435 0.021924637 -0.12269413 -0.07321446 -0.2144231 -0.12891178 0.031309664
29 0.95920044 -0.16621044 0.14045887 0.27562404 1.1706444 -0.25730413 -0.73254514 -0.23085427 0.17923675 -1.040928
consiste -0.1317812 -0.041600894 -0.0128502585 0.034946717 -0.048173957 -0.07089116 0.044989828 0.06701819 -0.03328226 -0.038514204
chose -0.20188293 -0.067093186 -0.054301403 0.028497074 -0.122523844 -0.13752931 0.0012738407 -0.065624595 0.064995304 -0.21937674
hidden 0.14906281 -0.08616481 -0.030625451 0.071723066 -0.18855143 -0.0706963 -0.18554047 0.003861107 -0.0785684 -0.04457515
détruire -0.14719526 -0.05964344 -0.041781165 -0.01234034 -0.032751203 -0.010420112 -0.013757706 0.029702779 -0.03365357 0.0038326385
st 0.9061525 -0.29649514 -0.37606686 0.11052144 0.017250704 -0.21908936 -0.3902352 -0.4440065 0.065024994 -0.3953866
vouloir -0.15121004 -0.05593203 -0.086595595 0.023612387 -0.07897723 0.023698542 0.0054337606 0.032336958 0.0990382 -0.13074538
acidose 0.027547915 -0.17523599 0.00039995773 -0.050236817 -0.03468187 -0.12415032 0.03978283 0.027198566 -0.07272942 -0.09233468
poulets -0.069258705 -0.03712043 0.039766748 -0.055550665 -0.049365323 0.022785937 -0.18613485 -0.05133171 0.07878539 -0.021152765
retard -0.13093655 -0.03870925 -0.001318802 0.0047861757 0.010142334 -0.0713376 -0.026963908 0.037002616 0.1344761 -0.11195233
quel -0.25746492 -0.1815084 -0.06464587 0.12081646 -0.15265548 -0.109779105 0.088487975 -0.048888557 0.12841238 -0.1784185
armes -0.1825366 -0.0517393 0.0702754 -0.13472849 0.0019932613 0.06779951 -0.17302978 0.074730344 -0.027145423 0.0054319613
photographique -0.05806261 0.039259654 0.044848382 0.017971354 -0.03529438 -0.018881412 0.0386726 -0.0028709322 -0.04165623 0.00076593086
calculs -0.114971995 -0.10066283 0.05911989 -0.024367562 0.023416426 0.005241932 -0.097362846 0.12981088 0.030795416 -0.082998864
nobel 0.04437565 -0.036625683 -0.08024041 -0.109329775 -0.106736146 -0.09637445 0.042900603 0.15008864 0.07048205 -0.31605121
crocodiliens -0.01693736 -0.030106595 -0.00016909702 -0.079948135 0.0037382077 0.013225605 -0.051184267 0.038396228 -0.011319079 0.015587693
nous -0.17945461 -0.06879275 -0.1158067 0.054490678 0.030401349 0.086041555 -0.13345161 -0.0654327 0.2506656 -0.11712783
subsiste -0.16279034 -0.0024600774 -0.015909335 -0.065658934 0.04692153 -0.056585975 0.011016468 -0.0056428155 -0.077286646 -0.033188377
classes -0.11797905 -0.043897696 0.100959346 -0.021550735 0.049342565 0.047333226 -0.08767559 0.08585083 -0.0062313336 -0.0062731868
assaut -0.14121649 0.046236515 -0.017387502 -0.056785773 0.0076781274 -0.05776788 -0.08454684 -0.0038735867 0.0074127377 0.026230121
exprimé -0.145199 -0.004180814 -0.09032905 0.004641041 0.05766074 -0.054213013 0.037992164 0.08451523 0.036313895 -0.103808925
françois -0.006791656 0.06702837 0.004750712 -0.05199356 -0.015646704 0.026121598 0.015645808 -0.12035719 0.036406334 -0.08085593
aristote -0.019338045 -0.075093605 -0.020503595 -0.0713896 -0.016244194 0.052367304 0.08149752 -0.06232114 -0.083627604 -0.1516876
matériaux -0.060696788 -0.06648944 0.109439895 -0.022179635 0.0015857611 -0.011109371 -0.095648766 0.018111922 -0.059053212 0.047370873
parfois -0.18406408 -0.09730493 -0.028337559 -0.04517908 -0.04551978 -0.009920805 -0.11041631 0.012299809 0.018872311 -0.09203779
leone 0.10176333 0.013324093 -0.11577591 -0.05391136 -0.11408814 -0.03784912 -0.061154835 -0.11509699 -0.056575015 -0.07385519
hacking -0.025652524 -0.051986825 0.003712656 0.060941886 -0.17412841 -0.11269857 0.040811963 0.2501186 0.0334126 -0.089151196
dessus -0.12341537 -0.08249024 -0.0069810688 0.0251355 -0.08262924 -0.119307674 -0.11977785 -0.079419576 0.00180853 0.0092610065
voitures -0.08522263 -0.038720768 0.078457765 0.0020302408 -0.0074378224 0.0044813156 -0.15998033 -0.0015989022 0.085915454 0.08907257
mur -0.36228776 0.04674828 0.1276266 0.011108682 -0.1723038 -0.3205183 -0.1085425 -0.29917076 -0.1633613 -0.0156705
auteur -0.07528829 0.09841664 -0.057006635 -0.0037868083 0.0056512845 0.031354446 0.10906668 0.04740234 -0.0091559505 -0.1755986
pollution -0.06338112 -0.053540993 0.08619963 -0.043665364 -0.02915589 -0.08790991 0.018116917 0.012340635 -0.011025371 -0.03924427
accessoirement -0.08754652 -0.0064620916 -0.025274131 0.0048781484 -0.038166888 -0.010409921 -0.018286124 0.00019333111 0.045558024 -0.018859599
khasan 0.02579254 -0.04259613 -0.019152613 0.001937855 -0.02642091 -0.06188973 -0.056797154 0.016884211 -0.10608449 -0.11692399
bassins -0.097349785 -0.060930498 0.14924347 -0.10251369 0.060311966 -0.001945785 -0.12424978 -0.042933434 -0.01514637 0.15086697
viennent -0.15118954 -0.04080844 0.0019879832 -0.022606468 -0.0042729443 0.036803618 -0.1247475 0.024560206 0.10695083 0.04276141
remonte -0.15622467 0.03010112 -0.07203696 -0.009273272 0.040557284 -0.099124484 -0.043634623 -0.051176958 -0.020779029 -0.03393341
postérieurs -0.067638874 -0.030756265 0.008949226 -0.041594487 0.057184447 0.002377808 -0.084710605 0.0465461 -0.044529602 -0.028242985
supercherie -0.081463546 0.01426138 -0.04527254 -0.010527949 -0.03626805 -0.0303087 0.043768343 0.011144313 -0.018907323 -0.08490739
toponymie -0.100487754 0.059292533 0.059658848 -0.09398542 0.07325657 -0.016187362 0.0996998 -0.016606249 -0.082222566 -0.0048053544
abattit -0.097000115 0.049057763 -0.19674334 -0.12012353 0.01773762 -0.01121599 -0.040460285 -0.04412442 -0.122814655 0.037541725
professionnelle -0.031118318 0.0009459055 0.038869753 0.016567715 0.018488012 -0.019247303 0.045894306 0.016608631 0.014852459 -0.014363871
conventionnelles -0.06584271 -0.03326549 0.033023905 -0.02547017 -0.0022885024 -0.005387388 -0.027696082 0.06466579 0.003286832 -0.0019403625
migraines -0.048532583 -0.0820761 -0.020535639 -0.04710445 -0.053384088 0.042952448 -0.08849224 0.01734692 0.023289228 -0.094176084
contact -0.08286695 -0.010523029 0.022565562 0.032199226 -0.012961455 -0.059037358 -0.015618561 -0.006583373 0.038506277 -0.018769741
appelé -0.1516156 0.053843964 -0.11931878 0.07486163 -0.013048492 -0.07004943 0.026013179 0.02096571 0.011730324 0.011075092
particule -0.048936535 -0.031005275 -0.011711863 -0.0015665498 -0.02170619 -0.14957283 -0.00744877 -0.010509204 -0.11686925 -0.09372382
294 0.36903206 0.22375545 0.21108997 0.086498976 0.7705349 -0.2115794 -0.6602461 0.09543564 -0.043591898 -0.4228983
ll 0.89000076 -0.89745873 -0.8654082 0.15648273 0.15812899 -0.4173261 -0.3999071 0.25689322 0.09479622 -0.47149333
aspect -0.19070959 -0.047843337 0.01974381 -0.0021253198 -0.12943642 -0.1334363 0.057528425 0.02007667 -0.10814946 -0.08468393
comparaisons -0.07334519 -0.042294774 0.028812889 -0.030824851 -0.017278515 -0.0004186495 -0.053040992 0.09333028 0.018140757 -0.03670656
réception -0.07979076 0.0028424598 0.06301132 0.039366037 0.026666269 -0.016432675 0.01932634 -0.031364635 0.00061004795 -0.011050738
évêque -0.050029922 0.20769553 -0.20818761 -0.123658895 0.22473593 -0.001142567 0.05184569 -0.0706112 -0.032420725 -0.0954637
prisonnier -0.09378068 0.06932771 -0.08418758 -0.020376574 0.013205115 0.0033787321 0.0063321707 -0.043616246 -0.04316545 -0.05879912
banlieue -0.08497414 0.083925344 0.005899969 -0.0634374 0.020931263 -0.032583162 0.004585111 -0.06459465 0.050342765 0.054245263
répondu -0.10691701 -0.013807401 -0.106154166 0.069898866 0.015673935 0.0097602885 0.0061727827 0.016407503 0.16725664 -0.1090232
brésiliens -0.08236018 0.012307656 0.014190991 -0.04436443 -0.014619309 0.015849885 -0.0863636 0.090596765 0.09652663 0.021691421
balance -0.11151647 -0.04219332 -0.024577588 0.04353815 -0.102125645 -0.108083844 -0.018616736 0.0034251872 -0.022079717 -0.060314726
quotidienne -0.08254815 -0.021815347 0.05016635 -0.007994299 -0.011462393 0.015602918 0.044204313 -0.00033130945 -0.016022615 -0.012424151
postérieure -0.0501991 -0.018499061 0.004994282 -0.021682233 0.06643756 -0.054529816 0.017140767 0.0024609298 -0.12115107 -0.030635465
palpatine -0.001807455 -0.04388377 -0.024095515 0.021034608 -0.07546209 -0.043591917 -0.015164115 -0.016715188 -0.032667 -0.09162892
hectares -0.04503486 -0.050485935 0.004743139 -0.05418213 0.15734044 -0.07283865 -0.052885406 -0.11288077 -0.034499638 0.090729885
déclin -0.16555965 0.043795444 0.0032384188 -0.1252083 0.008923697 -0.10280593 0.04241876 0.10064199 -0.09046162 -0.06137527
revues -0.08175605 -0.078898795 0.13084261 0.012120489 -0.0014138774 0.077945605 -0.095199525 0.12966232 0.020065252 0.026250888
scorbut -0.042376693 -0.016671523 -0.087868825 -0.16559304 0.0052954233 -0.06575885 -0.034487985 -0.054291904 -0.16421899 -0.052745856
directeur -0.025980106 0.08064079 -0.01689903 0.032358535 0.030724162 0.0036664566 0.08666826 0.06254953 0.053880706 -0.0006531188
plaines -0.06330634 0.026465103 0.018595908 -0.14180338 0.010037407 0.040684886 -0.14588404 -0.067426175 -0.1086788 0.1354498
187 0.33622968 0.22506735 0.23394907 0.099568754 0.69772935 -0.21347786 -0.5685959 0.08689675 -0.048313834 -0.459306
carburants -0.0005303754 -0.094591394 0.09377661 -0.04681181 0.055337973 -0.02352231 -0.008611699 0.026903305 0.047472715 0.058952127
appris -0.20392933 0.008711183 -0.124048546 0.007304019 -0.044395044 -0.01634712 0.0086366385 0.024863986 0.116947964 -0.081591226
gustav 0.103368774 -0.08322566 -0.2380787 -0.047520604 -0.16788939 -0.0026417614 -0.073105894 -0.021465449 -0.0965377 -0.15962629
númenóréens 0.009766112 -0.047078956 -0.0073817447 -0.012407993 0.04544162 -0.034764126 -0.0678447 -0.0005187641 -0.06982718 -0.06148982
comportementales -0.016926922 -0.045120835 0.018553628 -0.023145754 -0.004673107 -0.005258344 -0.008585128 0.07721393 0.019794188 -0.028949674
brownien -0.03556464 0.003267496 0.021269228 -0.039480314 -0.015608328 -0.16926226 -0.003657387 0.07002818 -0.11439622 -0.067080155
amoureux -0.06882914 0.05659353 -0.04857375 -0.03767728 -0.081228435 0.055163283 -0.04114141 -0.0754438 0.03927289 -0.045267317
niveau -0.15239048 -0.059747256 0.09260263 0.06540343 0.010746454 -0.14455967 -0.028217157 0.04519785 -0.013995402 -0.030063296
interprétation -0.056135572 0.012740177 0.007533387 -0.0019768956 -0.014507366 -0.011675548 0.027890857 0.0354848 -0.053162526 -0.06633267
forschungsstelle -0.007554478 -0.012464547 -0.015460555 0.021565774 0.021386007 -0.050840568 0.0027138954 0.02346709 -0.0054648714 -0.020796815
écoute -0.12869428 -0.039464183 -0.021539988 0.052688457 -0.10442833 0.0401743 0.0355638 0.00548473 0.08097618 -0.09662079
trafic -0.13872117 -0.074293785 0.11594757 0.015543843 0.021535186 -0.13380143 0.005493322 0.05471593 0.0431941 0.0035456538
ferait -0.20469311 -0.07850268 -0.14377059 0.04412299 -0.10455942 -0.090425156 0.015094325 0.017995793 0.06588617 -0.06778296
marine -0.051787686 0.051221963 0.04345191 -0.044976857 -0.025778968 -0.10247073 0.012550778 -0.060004797 -0.092953056 0.062344253
approfondira -0.08403277 0.0013729172 -0.023261325 0.0029854176 -0.011266814 0.021538733 0.09265313 0.050353907 -0.04030314 -0.023172181
yamato 0.059785295 -0.09748858 -0.09238123 -0.03468252 -0.13022761 -0.16846399 -0.09801604 -0.04661401 -0.07087495 -0.00863595
abus -0.107933536 -0.3423265 -0.052015554 -0.1268191 -0.06366098 0.04550202 0.15243316 0.26629514 0.04782515 -0.3480479
pénitentiaire -0.046249576 0.036142744 0.01635009 -0.029317126 0.061893582 -0.015302374 0.080043025 0.012165572 0.0130127035 0.002544617
esclaves -0.09715512 -0.014439812 -0.002443427 -0.08954517 0.035405375 0.085502766 -0.106887095 0.029924247 -0.056129612 -0.023644023
citrus 0.013938129 -0.07152403 -0.026135063 0.013273549 -0.14133792 -0.13371514 -0.11572738 -0.0009028286 -0.07172203 0.029731398
boumnyebel -0.03582047 0.01782533 0.009568727 0.0331949 0.03911435 -0.019586395 -0.055096157 -0.006289457 0.0021613194 -0.06661937
1902 -0.034245133 0.31033581 -0.038950916 -0.08448094 0.3715999 -0.03712073 -0.016856363 -0.07297354 -0.20732394 0.04255719
corée 0.08382416 -0.026768979 0.055167805 -0.059535503 -0.1706024 -0.17710072 -0.07260503 0.061112646 0.07345708 -0.07991411
nouveaux -0.11408171 -0.07698592 0.09082706 0.031132672 0.013513478 0.08816541 -0.11818932 0.07948373 0.04899819 0.004941134
8346 0.41164112 -0.05102573 0.041450348 0.0956138 0.25663123 -0.10041523 -0.20716827 0.06137842 -0.1092094 -0.058021538
futuriste -0.0537649 0.036418766 -0.041765146 0.018380621 -0.118054435 -0.07455465 0.021030508 0.003439947 -0.064947866 0.030641425
renaissance -0.07554772 0.047256757 0.02808403 -0.02074253 -0.00439788 -0.017347043 0.03333753 -0.005794716 -0.07362665 -0.026758766
avaient -0.1884746 -0.09386992 -0.057590313 -0.06701197 0.076315135 0.012560657 -0.17908809 0.06485451 0.05724805 -0.011511719
chars -0.09344526 -0.062018763 0.0013723318 -0.09761167 0.003059145 -0.014637452 -0.32008547 -0.004752727 -0.016216472 0.09933154
ea 0.9774976 -0.47202614 -0.04790037 0.35092002 -0.016036911 -0.4370825 -0.26999676 0.07179578 -0.31497478 -0.3762026
vamp 0.018927407 0.0909978 -0.2247496 -0.025007024 -0.40207455 -0.10843028 -0.1665669 -0.060173616 -0.23520057 -0.10881159
royaume -0.10110577 0.071177326 -0.022489965 -0.08021196 0.056722164 0.0059850197 -0.022050118 -0.05229135 -0.093106434 -0.029970711
gère -0.24129502 -0.041404855 0.043444183 0.11833431 -0.0731738 -0.15324572 0.057386126 0.115056954 0.18821947 0.042864647
succès -0.13026643 0.042572867 -0.022649063 0.002125001 -0.042086944 -0.009391191 -0.008150048 0.0892983 0.050401505 0.009490472
pendant -0.143543 -0.028210476 -0.016267482 0.035994306 0.031357884 -0.015837982 -0.057311516 -0.034646057 0.018971775 -0.030397667
pontifes -0.10034191 -0.02247442 -0.030672807 -0.15030316 0.09190849 0.08489189 -0.049489226 0.034452807 -0.012037601 -0.096350305
concernées -0.08385494 -0.053527065 0.049099524 -0.02496661 0.08509619 -0.009309862 -0.012577659 0.059247766 0.06453997 -0.020675639
gille 0.00773035 -0.023783013 0.04645402 -0.057364356 -0.15193495 -0.054440163 -0.044493012 -0.25562593 -0.013511604 -0.106424496
smith 0.14172673 -0.065518245 -0.14843394 0.12855959 -0.25028408 -0.16234496 -0.14250852 0.10480024 -0.07661496 -0.122446224
7 0.8612125 -0.20852888 0.33605197 0.43651107 1.0132008 -0.28565255 -0.8783088 -0.10753964 0.028244112 -0.8939603
1912 -0.029967083 0.32231617 -0.04041749 -0.06512201 0.34718308 -0.022993302 -0.038242567 -0.04578764 -0.23693167 0.04498453
simples -0.14220287 -0.12271204 0.08175038 -0.041722547 -0.07056376 0.07870608 -0.17509496 0.072895825 0.035613157 -0.030239273
acquis -0.19978844 0.0029379248 0.006000367 0.007842183 0.09070601 -0.032583874 0.016476868 0.10404181 0.05570338 -0.024217995
n 0.08524782 -0.77589226 -0.5253912 0.046982657 0.33887792 -0.26241463 0.08638372 0.30943555 0.11605995 -0.52768075
liturgique -0.072654895 0.009248333 0.04415338 -0.030118741 0.03506887 -0.025456557 0.073934995 -0.009060577 -0.14152057 -0.04020592
glucocorticoïdes 0.022935092 -0.058026023 0.021310335 -0.035251636 0.031629153 -0.03140285 -0.015333393 0.07046253 -0.007948695 -0.024291307
politique -0.100430936 0.023017662 0.022163168 -0.036563817 0.016515203 -0.030414678 0.13274702 0.07699819 -0.024182152 -0.08831665
méntouab 0.097134374 -0.0064985408 -0.10877513 -0.01397007 0.036561515 -0.025529355 -0.03474494 0.010564603 -0.035596132 -0.055748783
canada -0.021114534 -0.022543885 0.09170725 0.042508718 -0.09116101 -0.123144284 -0.061473962 0.049008463 0.03717503 0.0032323718
fureur -0.16632274 0.009066208 -0.057992678 -0.06459139 -0.102358036 0.014068951 -0.046576355 -0.061290152 -0.078986935 -0.08391161
instar -0.17292309 0.05468305 -0.03842644 -0.055220176 -0.009622355 -0.004521993 -0.033234876 0.116723575 0.0233582 0.027938223
manifestation -0.07685009 0.022454128 0.031698376 -0.009858067 0.02266628 -0.009296536 0.051679358 -0.0059607844 0.007560755 -0.031492606
délégation -0.07414418 0.053750772 0.030176142 0.0016188326 0.10271196 0.0013701883 0.082726434 0.049769785 0.059721638 0.020546056
techniques -0.057112116 -0.07056229 0.10055676 -0.012822941 -0.021176606 0.01653125 -0.057362277 0.10132886 0.008262537 0.013162097
agitation -0.099400945 -0.013910811 -0.0032267282 -0.075153776 -0.017412102 -0.028469432 0.01960522 0.000661789 -0.06636349 -0.051655572
costumes -0.08399482 0.008719966 0.030862423 -0.043343134 -0.095330365 0.0916565 -0.15312254 -0.0047826236 0.0023688893 0.034330543
mitrailleuse -0.016595908 0.017742384 -0.023304304 -0.013535885 -0.025515193 -0.07493664 -0.051312964 -0.009948934 -0.0576649 0.0009768598
synchronicité -0.03274952 -0.010829551 0.00476412 0.010474622 -0.067875296 -0.003226228 0.039635606 0.040023267 -0.046828017 -0.067919895
nichols 0.019044321 -0.049828157 -0.12297723 0.042291906 -0.07050546 -0.06317181 -0.029474188 -0.031249173 -0.0092301145 -0.11432451
comprit -0.14566761 -0.016141912 -0.1796193 0.007079185 -0.037337154 0.0002544063 0.0023140213 -0.019431343 -0.0399943 -0.0612783
régies -0.097330965 -0.10365333 0.103714876 -0.052314896 0.12383727 0.048726577 -0.015499919 0.16198252 0.066026054 0.06740358
cusm 0.033377472 0.020457763 -0.041589044 -0.020447567 0.0037784204 0.0019291881 -0.005914395 -0.0045877267 0.027863784 -0.0071515124
autorité -0.1111055 0.018847326 -0.011903961 -0.05434482 0.08355905 -0.013623868 0.1229015 0.08251174 -0.035919167 -0.087448165
22nd 0.40968367 0.03020775 -0.101176284 0.3204603 0.082756594 -0.03701999 -0.21697992 0.15143704 0.14131086 -0.09626301
samedi -0.03085407 0.035430018 0.013348433 0.026061911 0.08384892 -0.05378219 -0.043222666 -0.12776418 0.15602994 -0.018873299
équipes -0.090762876 0.00837425 0.06781007 0.025464963 0.08839946 0.028990313 -0.08782475 0.13863434 0.14938882 0.11177473
maltraités -0.08680109 -0.022362474 -0.033497572 -0.060766917 0.027831562 0.059510827 -0.044178687 0.023827095 0.06340392 -0.05353274
inuits -0.09217284 -0.07093715 0.00575968 -0.12541215 -0.044414192 0.015292252 -0.16771762 0.054638304 0.007845809 -0.04942888
impitoyable -0.07530274 0.018914357 -0.05389182 -0.022195995 -0.064221084 0.0107534565 0.033675622 0.022091309 -0.033909284 -0.049245354
mentaux -0.07357272 -0.115784876 -0.053038917 -0.114946656 -0.03089012 -0.012545629 -0.08307577 0.15629983 0.025043372 -0.117111236
thème -0.1413666 0.043919943 0.15935333 0.06660071 -0.15546401 -0.0026201913 0.072825156 0.009913465 -0.041572332 -0.05962863
it 1.1880187 -0.66483575 -0.6186724 0.4911259 -0.15728238 -0.5019456 -0.29520673 0.3000345 -0.27600428 -0.61088467
platine -0.037740923 -0.006609007 0.058750354 0.05986537 -0.0773726 -0.18578568 -0.091272876 -0.017837113 -0.06858129 0.039718505
i.a.p. 0.018368214 0.005323261 -0.08384998 0.0032361671 0.037061945 -0.0149421645 -0.0675714 0.0029982626 0.019725095 -0.05978533
égypte -0.05650565 -0.028738618 0.061796572 -0.12715323 -0.071113825 -0.04981917 -0.017206026 -0.043640424 -0.05135603 -0.12367006
restreints -0.0824644 -0.05454082 0.057804003 -0.031936925 0.009675612 -0.0013076133 -0.056520853 0.095695406 0.014892605 0.007268049
tests -0.13901328 -0.17228952 0.16622072 0.09311304 -0.09013154 -0.048833154 -0.17716394 0.24185681 0.09304813 -0.00556751
170000 0.09823206 -0.07705604 0.05704684 -0.0005341619 0.19351088 -0.08083439 -0.14865033 -0.050414443 0.10485659 -0.038253684
ter 0.15750879 -0.15663695 -0.09584082 0.15883557 0.16505964 -0.13455409 -0.26203787 -0.030391138 -0.059522323 -0.1205809
réfractée -0.00034322822 -0.039430283 -0.02911393 -0.05488257 -0.008162465 -0.058892027 0.055972643 0.03234136 -0.14314368 -0.043157764
débutèrent -0.08552014 0.014856622 -0.03646464 -0.07166069 0.1088945 0.018887917 -0.08505123 0.057465807 -0.04562412 0.0926172
acier -0.106398515 -0.010528905 0.074357525 -0.04995198 -0.06374024 -0.20500524 -0.1383134 -0.06352702 -0.13195504 0.10161545
14h 0.19520593 -0.032304764 0.20556788 0.08505395 0.32472467 -0.00875731 -0.16672312 -0.35183266 0.29934797 -0.20478408
sauver -0.17579971 -0.004409431 -0.1026664 -0.0062564164 -0.08735661 0.048014246 -0.017840186 -0.0061207055 0.035724934 -0.02742435
codes -0.15209652 -0.14357385 0.11690674 0.07049619 -0.10442648 0.03589456 -0.13558123 0.21610436 0.01014195 -0.052044496
décident -0.14746027 0.005055662 -0.070803516 -0.009457323 -0.0035115213 0.04019224 -0.05923797 0.06378981 0.06647974 0.033451494
souffraient -0.08322435 -0.04050342 -0.031922843 -0.084587485 0.027608538 -0.001408875 -0.08519276 0.06784083 0.00840617 -0.026966805
totale -0.1575128 -0.039453115 0.06743992 0.024332495 0.07838133 -0.13232946 -0.008140104 -0.005152552 -0.08664128 -0.115985334
haye 0.24679628 -0.11325893 -0.059012458 -0.18145323 -0.048322037 -0.06528065 0.07489326 -0.16019048 -0.040568158 -0.08313823
logique -0.15905128 -0.029523483 0.021928385 0.026156878 -0.046077214 -0.07245664 0.094279915 0.066087715 -0.021288533 -0.1300104
rien -0.25385278 -0.19045928 -0.10137214 -0.015498495 -0.15351868 -0.110073 -0.0192457 -0.06259568 0.18965606 -0.26171413
2018 0.06473222 0.033367865 0.1294 0.08919589 0.30453807 -0.14932577 -0.015920732 0.09588542 0.18425381 0.044217236
libre -0.1955765 -0.0031428225 0.061473522 0.056276172 -0.040212266 -0.053272434 0.090700746 -0.031098073 -0.041359965 -0.0601924
débordements -0.08315605 -0.043174986 0.013077941 -0.0631426 -0.0016934628 0.04119754 -0.033190977 0.028494751 0.020777225 -0.031165907
téléchargeable -0.019828055 0.006352131 0.046719383 0.07989044 -0.0023146947 -0.027969625 0.025393799 0.022743631 0.021884557 -0.0033372627
150 0.13574731 0.028982349 0.31989408 0.17345887 0.49507907 -0.23214747 -0.6304344 -0.109003894 0.14745975 -0.17349303
explique -0.16435944 0.04106604 -0.107585564 0.01883921 -0.04676885 -0.0056699496 0.040712673 0.06180347 0.07002937 -0.05222668
evat 0.03033344 -0.050191365 -0.13054003 -0.018094854 0.113727696 -0.016837604 -0.04396946 -0.07279827 0.049988747 -0.1432292
quarante -0.097565286 0.02263657 0.01660835 -0.057241753 0.093185686 0.013930353 -0.113836534 -0.029522255 0.0063181915 -0.09168749
timbre -0.11828436 0.04146967 0.03149891 0.042871475 -0.0057067606 -0.1508972 -0.02310591 -0.060575742 -0.064748146 -0.08176007
cognitif -0.03159089 -0.048074026 0.019814247 0.017492201 -0.03734386 -0.12294154 0.098219655 0.109652065 -0.04352855 -0.12837112
sections -0.075051405 -0.05791037 0.12591091 0.014684806 0.069081046 0.00042443618 -0.085640565 0.09027908 -0.016940482 0.06079633
étudie -0.1579678 0.05674466 -0.056483515 -0.058760114 0.02636966 -0.061400294 0.065278225 0.12129947 -0.0010421053 -0.009382981
funk 0.047786534 -0.0028374805 -0.10118261 0.0115503175 -0.2937187 -0.14992094 -0.09432638 0.09967878 -0.08790346 -0.00059074664
defiant -0.036625504 -0.10178634 -0.011063263 0.0790036 -0.14528587 -0.04934206 -0.014082728 0.060533725 -0.060332865 -0.02492789
écrasante -0.09477061 0.005133085 -0.032947518 -0.035481587 0.040904496 -0.025307544 -0.0046633165 0.050508305 -0.007627737 -0.056455858
gaussin -0.12969935 0.052827377 -0.025949419 0.13134162 0.0231515 -0.006861263 -0.06847482 -0.008078072 -0.023401901 -0.13777854
chandragupta -0.0065215454 -0.026637662 -0.01881878 0.05410666 0.003054736 0.001999017 -0.021090332 0.013878146 -0.056521077 -0.07279726
circulation -0.08142299 -0.03338213 0.08172399 -0.01361908 0.030545939 -0.05358806 -0.0005649209 0.0050886483 -0.020280283 0.002640266
défavorable -0.091085784 -0.0280733 -0.0066908957 -0.009657848 0.05699226 -0.030467412 0.055415627 0.045281228 0.03405837 -0.044901274
rhabdomyolyse 0.013915924 -0.041860476 -0.0020697452 -0.011922581 0.015721597 -0.03764965 -0.0074063987 0.03482189 -0.043396562 -0.04357393
ergonome -0.005976537 -0.009027416 0.026862713 0.026598556 -0.07393208 -0.07023685 0.1275304 0.031212633 0.124868885 -0.039809365
mère -0.20338655 0.19231138 -0.15429366 0.00038445494 -0.03447198 0.004250904 0.011765188 -0.14728445 -0.020553175 -0.16790009
2009 0.12017098 0.10000466 0.052824676 0.1424616 0.2642295 -0.07806184 -0.0797078 0.0659633 0.12017676 -0.21783152
critiques -0.09749846 -0.03361981 0.010868013 -0.019176384 -0.012047334 0.062520586 -0.05414889 0.14724122 0.035461735 -0.071099326
usine -0.1647809 0.11895244 0.117788024 0.02148401 0.013066586 -0.1937187 -0.00058588386 -0.103060134 0.03648331 0.21018794
banché 0.09000812 -0.106560186 0.030815512 0.044484776 -0.017725464 -0.19011052 0.010021359 -0.07630094 0.037222266 -0.025537921
attentions -0.059623294 -0.07128918 -0.0148591 -0.04580488 -0.05564548 0.04425166 -0.020343287 0.0047335336 0.07375111 -0.025020497
dialoguer -0.101886824 -0.025554344 -0.04541158 0.0012065805 -0.020044852 0.032670155 0.018488973 0.038526226 0.0823311 -0.058962982
abritant -0.115365826 0.0077876262 0.025966568 -0.06728913 0.01674418 -0.023521531 -0.06157423 0.0028302139 -0.05042709 0.086646475
grossesse -0.054299016 -0.039302573 0.017504472 0.02735392 -0.022659063 -0.04380639 -0.0044137053 -0.017726708 -0.002568407 -0.10730778
guérison -0.1004824 -0.021857979 0.0129439635 -0.021752734 -0.029978268 0.014228385 0.028084688 0.004874701 -0.13672495 -0.07760816
poivre 0.07804886 -0.037386265 0.009738826 -0.060483366 -0.10586498 -0.0935895 -0.060144763 -0.15566455 -0.028188845 0.00011095107
fortuite -0.12205939 0.0039238217 -0.020005215 -0.037625782 -0.033054095 -0.019211963 0.042314794 -0.014910632 -0.057313282 -0.062046174
pu -0.19783713 -1.1142218 -1.0534348 0.07751808 0.13226835 0.054465305 -0.29786375 0.20619488 0.2595048 -0.010946655
cosmopolis -0.032342717 0.0016450344 0.0037526414 -0.019300738 -0.035783544 0.0027707857 0.027209824 0.00782577 -0.034946144 -0.026234252
dent -0.15241665 -0.078870565 -0.051088475 -0.027849307 -0.16080411 -0.22266649 -0.071773104 -0.21771812 -0.16127616 -0.16542397
lisant -0.1621391 -0.011506475 -0.07734208 0.03349734 -0.0963371 0.026100293 -0.011633733 -0.030969903 0.031064471 -0.13832639
édit -0.11058436 0.113449425 -0.08791946 -0.0074539436 0.17387873 -0.11005239 0.0071325107 0.0031152666 -0.036903795 -0.23301125
mendiant -0.07122389 0.056928262 -0.08220448 -0.08178852 -0.025305914 -0.01946126 0.018359944 -0.119546235 -0.06012542 -0.10553987
hypermétropie 0.040356055 -0.08274283 -0.020343982 -0.0024493947 0.02508135 -0.06132403 0.02499992 -0.012192754 -0.02953215 -0.068835706
rouge -0.12262057 0.063781485 0.028032951 0.01798167 -0.10178866 -0.17396581 -0.09005569 -0.1290459 -0.0969195 -0.020753294
large -0.16916502 -0.03133741 0.040022783 0.033501986 -0.01966544 -0.16606003 -0.06253311 -0.010069143 -0.07167223 0.08069445
kong 0.23625058 -0.262946 -0.17468064 -0.002325823 -0.2945767 -0.32413876 -0.20600097 0.020770594 -0.09015788 -0.06684098
norvège 0.048415314 -0.06757264 0.04463289 -0.06290233 -0.09559709 -0.100645304 -0.008240286 -0.033635095 0.03822271 -0.016902883
interrompu -0.10385064 -0.00086357194 -0.059136953 0.0032280954 0.013627172 -0.022318866 0.012669246 0.028156592 -0.012085649 -0.020791681
catholiques -0.073491655 0.013124994 0.0013394345 -0.097521 0.091503374 0.07722976 -0.043821473 0.038260665 0.027635038 -0.041160237
affrontement -0.07094555 0.025529688 -0.036729448 -0.043495044 -0.0005333234 -0.02720155 0.0045724185 0.05285128 -0.025277095 -0.044445343
reporter -0.11659015 0.021727834 -0.029569259 0.041215178 -0.031683244 -0.015298725 0.027789377 0.046844654 0.068108015 -0.027940098
es 0.3380584 -0.8483604 -0.6127166 -0.104637325 -0.1605288 -0.23135585 -0.012618224 -0.18365228 0.25049308 -0.7499735
kahn 0.23489934 -0.05845224 -0.37268865 -0.18885504 -0.111101404 -0.017003082 -0.06014919 0.059349805 0.009576179 -0.2628865
laodicée -0.072986156 0.016608082 0.015389653 0.035083808 0.062319532 -0.03056707 -0.053776097 -0.0009893354 -0.1141956 -0.10529079
risque -0.1721085 -0.11439953 -0.0038126544 0.017397786 -0.07029221 -0.10412019 0.043237302 0.066236354 0.025833247 -0.11187112
cinquante -0.07840927 0.02655837 0.027162515 -0.053579744 0.07898979 0.0031052744 -0.12013617 -0.018862832 0.011913161 -0.0723651
abattre -0.16654584 0.0036678985 -0.09533341 -0.052125864 -0.023491781 -0.005400694 -0.059161108 -0.0015890608 0.040793106 -0.041276086
indignation -0.086276144 0.0001131773 -0.041763343 -0.06392128 -0.006184097 0.01675437 0.05877584 0.02198582 0.0036371306 -0.09361512
fantassins -0.02409915 -0.0067910794 -0.018756038 -0.07434381 0.059483927 0.001954009 -0.119256414 0.020747168 -0.023313837 0.015817998
évoque -0.23635817 0.04108415 -0.09924073 -0.051856417 -0.068837695 -0.018550768 0.062312227 0.046114225 -0.055534076 -0.07854183
creux -0.19162294 -0.08736383 0.03194993 -0.0844477 -0.13477622 -0.10767117 -0.12021615 -0.10664257 -0.114814565 0.0038484056
patrick 0.09046501 0.041580476 -0.058396675 0.018144792 -0.044978015 0.011059765 -0.0055526486 -0.08358285 0.1180712 -0.12312958
huit -0.16743338 0.024714157 0.10729324 -0.059157103 0.1927062 -0.018099558 -0.41582078 0.011682078 0.041301657 -0.09252879
séleucos -0.06844758 -0.11404052 0.03036378 0.12141861 -0.008000269 0.0077686734 -0.05328285 -0.034493394 -0.04196408 -0.10622539
émigrés -0.12590623 0.03166785 -0.012755359 -0.15954654 0.17192346 0.09439274 -0.07587867 0.040035494 0.029685002 -0.025497567
chus -0.017148882 -0.18346074 -0.18934596 -0.13134041 -0.22622538 0.010093378 -0.19575386 -0.10001268 -0.07825495 -0.19759616
basée -0.15559338 0.03805879 0.07747485 0.05507424 0.04511206 -0.064283706 0.063931994 0.121517524 -0.058431037 0.058847852
fonction -0.119239725 -0.04720878 0.08837556 0.039139636 0.013185468 -0.059303626 0.04406748 0.055442344 -0.04422979 -0.014850917
cinquième -0.07648205 0.05246177 -0.011117808 0.016662125 0.04998198 -0.058282413 -0.02069635 -0.0041660303 -0.03801805 -0.015392988
saturé -0.144729 -0.06438356 0.018180326 0.0075172293 -0.09264263 -0.16619243 -0.039772864 0.005129312 0.024739144 -0.038139585
perciformes 0.045118153 -0.043248124 -0.028140346 -0.08434735 0.03609261 -0.06870192 -0.050345868 -0.007993141 -0.079951674 0.014928467
vivants -0.14139521 -0.01993229 0.03924251 -0.07864484 0.01405996 0.079291254 -0.1237537 -0.004496304 -0.011043003 -0.044432968
baffin -0.10427908 0.032028586 -0.04708014 0.05505885 -0.04601385 -0.017743934 -0.09579846 -0.055804692 -0.008686532 -0.14028072
carter 0.065790385 -0.149297 -0.027449021 0.027588053 -0.15748748 -0.28689417 -0.06787186 -0.018109208 -0.08664628 0.028759558
décision -0.114415415 0.023680873 -0.02971638 0.040149834 0.082169026 -0.041973878 0.08630971 0.09075672 0.03721465 -0.09898351
vassy -0.061469667 0.009815935 -0.07356589 0.0785546 0.050072066 -0.048838105 -0.12833646 -0.05588045 0.0007721558 -0.15725762
bassesses -0.12332526 -0.092655376 -0.049756233 -0.1100534 -0.027154656 0.12728058 -0.026216011 0.00019288622 0.0037937483 -0.11102633
spéciaux -0.079756126 -0.050998215 0.0822182 0.008675088 -0.06974244 0.018420463 -0.1324686 0.11220142 0.0585567 0.026001133
sí 1.1070915 -0.83684015 -0.74445355 -0.4261865 -0.31967396 -0.19719839 -0.015129724 0.638424 -0.40109944 -0.4085951
locomotives -0.052564245 -0.0053762454 0.046235215 -0.01780645 0.04373465 -0.0015288353 -0.10313239 0.015216887 -0.0056710187 0.077409826
émotion -0.13198967 -0.0090243425 -0.041622832 -0.030998789 -0.0995829 0.006206529 0.053989254 -0.028551927 -0.060150765 -0.10610681
zinc -0.08353033 -0.060081102 0.1321479 -0.08760555 -0.13177302 -0.24666786 -0.18544829 -0.22147046 -0.15516558 0.07919349
importance -0.12917541 -0.0067899004 0.030538648 -0.031441644 0.0033901094 -0.018397713 0.043473788 0.049055923 -0.023810811 -0.05241634
retrouve -0.16532871 0.031407602 -0.0888414 0.0064182742 -0.04538382 -0.03172216 -0.0554393 -0.008663144 0.008948301 0.0055373292
prénom -0.045967128 0.10574806 -0.15825073 0.04060882 -0.047484666 -0.014715266 0.0012510061 -0.050923456 0.032603614 -0.1589417
attendre -0.122266136 -0.038317077 -0.045586836 0.039570354 0.0029666687 -0.039098196 -0.05508477 -0.024243284 0.08539032 -0.05248092
désireux -0.12308589 -0.031162893 -0.050568946 -0.028154433 -0.014375666 0.059738893 -0.0026796015 0.032498494 0.05184989 0.025129179
cornelis -0.073104724 -0.024869582 -0.021654304 0.10422232 0.012075852 0.02764282 -0.05252279 -0.02452917 -0.06464354 -0.061521403
tivoli 0.015815025 -0.019105567 0.09988738 0.09862704 -0.01689117 -0.09620131 -0.15037863 -0.20469072 8.8033084e-05 0.11507839
vison -0.100048006 0.00738829 0.017745944 -0.030105554 -0.16997473 -0.17551398 0.018590517 -0.020251935 -0.1407099 -0.121983886
aller -0.16027267 -0.10478838 -0.073969394 0.054496665 -0.053259954 -0.02286312 -0.078672744 -0.093608364 0.15986343 -0.029182984
sémantique -0.07552926 -0.020994535 0.039805107 0.0038157867 -0.052544504 -0.07975811 0.08520758 0.06579594 -0.077347904 -0.09043518
déités -0.059799988 -0.12760746 -0.033595134 -0.18984404 0.007155639 0.10605855 -0.11222428 0.07845222 -0.20011178 -0.02922829
sculptures -0.04439162 0.008309783 0.035531778 -0.060739074 -0.031991452 0.044449862 -0.13777559 -0.05030345 -0.075869374 0.057400003
intelligence -0.0682676 -0.017687619 -0.002643503 -0.0043716487 -0.049987882 -0.0002233061 0.057007503 0.04254142 -0.039109845 -0.06691209
permettait -0.13249119 -0.005985588 -0.032455165 -0.005987211 -0.018261751 -0.046841692 -0.009924572 0.031205015 -0.011154134 0.028636578
évaluation -0.06890942 -0.027959129 0.062075425 0.050688155 0.030739881 -0.03838792 0.05800511 0.109236434 -0.017891217 -0.047995206
infecta -0.06412118 0.0066975257 -0.13330533 -0.05048449 -0.020754017 0.0037374324 -0.053568818 0.020195821 -0.18677482 0.0052223927
avance -0.17210673 -0.022122176 -0.06331483 0.051963516 0.011497413 -0.036178965 -0.023986269 -0.016288532 0.08175328 -0.07602749
pénalisée -0.100837365 -0.012571581 0.002741186 0.02466778 0.06257711 -0.07027426 0.022832794 0.05781778 0.05561901 -0.01248322
structure -0.10071236 0.0030541858 0.08401663 0.029050563 -0.0003686361 -0.09816259 0.0454009 0.025237137 -0.07410471 0.021570083
olympique -0.056457028 0.08511587 -0.008074344 -0.02831078 -0.010689546 -0.10963994 0.038538292 0.01599415 -0.0058196457 0.034020923
contiennent -0.04851302 -0.054550376 0.022985347 -0.016907772 -0.023259804 -0.019197332 -0.09676685 0.07954892 -0.038472038 0.004817039
bouleversements -0.05322008 -0.02310398 0.00415059 -0.04517019 0.017082091 0.0409019 -0.019488204 0.06259541 -0.006739824 -0.03417919
finit -0.24133843 -0.004706688 -0.23759511 0.007466579 -0.052315637 -0.059844002 -0.060559113 -0.035436485 -0.037680883 -0.076880455
température -0.05162359 -0.029145032 0.056177456 0.013592221 0.020977044 -0.09412025 -0.03356384 -0.046674635 -0.04467858 0.021182487
nommée -0.074419074 0.13145281 -0.06745147 0.0900526 -0.006046842 0.00060334353 0.02973972 0.019129982 -0.11065822 0.06702192
toutes -0.16945651 -0.14358172 0.07282025 0.014057654 0.023527313 0.11400967 -0.17405233 -0.016708558 0.04540747 -0.057458222
1982 -0.004515226 0.28126526 -0.012350939 0.03601096 0.2599536 -0.06399387 -0.014902571 0.08918525 -0.06516861 -0.043370664
21 0.9844034 -0.18347536 0.076522246 0.2714161 1.0426475 -0.26473278 -0.7644546 -0.18727586 0.23014607 -1.0805225
sens -0.29745725 -0.10799917 -0.071577 -0.0017802566 -0.108566515 -0.11607754 0.04536915 0.030156344 -0.0655092 -0.21509998
16,4 0.15733379 0.12198669 0.16742826 -0.018588755 0.5382123 -0.25151446 -0.32637316 -0.0568511 0.008720351 -0.10094359
visant -0.17308378 -0.07657341 0.00028826596 -0.017815743 0.01426743 0.008487294 0.046584852 0.1726876 -0.010721425 0.019942928
recensées -0.106098585 -0.0075424723 0.053893313 -0.037273653 0.14067924 -0.002642517 -0.090201356 0.037550196 0.051306788 -0.016740996
euros 0.012901675 -0.13240433 0.06321243 0.05945576 0.14448771 -0.17197526 -0.11949351 -0.10447978 0.19134204 -0.046522707
bunsen 0.07268821 -0.15731354 -0.07572042 0.036468696 -0.09845623 -0.139182 -0.06009702 -0.03534028 -0.097877145 -0.054099914
express -0.021817869 0.006535844 0.05070725 0.08070882 -0.04798688 -0.08549917 0.0050243028 -0.0143081825 0.043295503 0.024124794
viêt 0.1043637 -0.23878781 -0.15404573 -0.3037125 -0.022307385 -0.066235475 -0.01548869 0.06808038 -0.13785645 -0.08368593
architecture -0.045386706 0.027863882 0.058309853 -0.009023594 0.012515121 -0.040614635 0.03992514 0.012112957 -0.050938684 0.024801984
épisodes -0.060525708 0.00083206384 -0.021354444 0.03525021 -0.0008849763 0.03206083 -0.1419592 0.0838065 -0.043268576 -0.062762305
marins -0.114025705 0.0011559994 0.040560666 -0.13202684 0.048044603 0.053804036 -0.19105814 -0.02431246 0.0017151058 0.03909349
fsx 0.67346233 -0.77566975 -0.031232456 0.03518854 -0.254305 -0.5542674 -0.027997239 -0.16176629 0.24363858 0.08631042
complexe -0.10726501 0.027014501 0.01733635 0.0029976838 -0.047500383 -0.102162436 0.054586202 0.027222695 -0.047927864 -0.024098793
63400 0.33739683 -0.12260312 0.094716385 -0.08927745 0.19497313 -0.066907026 -0.019708898 -0.058074057 0.12266272 0.006864803
économique -0.06829752 0.0038363703 0.053209737 -0.010191613 0.02421707 -0.07749525 0.10973217 0.042555157 -0.00695943 -0.016774269
comecon -0.091721185 -0.010217874 -0.0034901157 0.061177906 -0.0154492585 -0.08073542 -0.05419668 -0.033581384 0.044371434 -0.04979516
tcp 0.72387135 -0.7164533 -0.23407182 0.05413688 0.3108073 -0.58264434 -0.18463692 0.1695161 0.01847905 -0.20266488
celtiques -0.03325451 -0.02339758 0.03191538 -0.14531715 -0.024334084 0.03785107 -0.12286446 0.0088039385 -0.061206475 0.026431587
désormais -0.1496172 -0.023929605 -0.007639585 0.022522222 0.03574077 -0.03927657 -0.033534296 0.010764372 0.059976887 0.004895307
taper -0.12612432 -0.13626052 -0.08778117 0.09494508 -0.1698237 -0.07481562 -0.14887297 -0.023092275 0.12657918 -0.15831318
principaux -0.08464579 -0.020738533 0.05103122 -0.017254885 0.029389657 0.044140805 -0.05104802 0.09017085 0.011125538 0.007513292
sérieuse -0.12422523 -0.018489994 -0.02914809 0.025089687 -0.045753535 -0.019496575 0.08778092 0.012005804 0.01894858 -0.09710655
installera -0.100962356 0.02489972 -0.027419308 0.021658136 0.008717901 -0.039438885 0.019311322 -0.037061818 0.03809854 0.10176823
ligne -0.1279133 0.0020237602 0.14029309 0.10220333 0.076337226 -0.1217943 -0.024938129 0.014264796 -0.0012232885 0.022832882
stoker -0.044244714 -0.17821589 0.06008569 0.040697087 -0.14507644 -0.18884902 -0.1288603 -0.05972525 -0.051965095 0.034631807
partition -0.07345178 0.011114668 -0.03324931 0.018397754 -0.0195264 -0.051079873 0.0064567924 0.02265629 -0.10688348 -0.03914654
antoine 0.101324074 0.010007652 -0.051147994 -0.016320907 -0.040534854 0.04064989 0.04513003 -0.15279603 0.057346813 -0.13635287
unités -0.094108306 -0.11527467 0.13285187 0.0040370747 0.14757256 -0.059932973 -0.15819371 0.15646651 -0.04916761 0.11119862
350000 0.05297479 -0.07788923 0.075732045 -0.013410258 0.1859083 -0.06556183 -0.14912875 -0.019449962 0.11709219 -0.05819064
toujours -0.1594954 -0.049131338 -0.033605438 0.016008236 -0.012817343 -0.003762388 -0.055790044 -0.031400323 0.06443572 -0.065634705
véhicules -0.05050785 -0.07032963 0.10292995 0.015065748 0.04195535 -0.01573586 -0.10558166 0.049420144 0.05392108 0.08213218
établir -0.1748098 -0.07144174 0.01397619 0.002515616 0.09216146 -0.014442588 0.03149456 0.066261485 -0.029024586 0.009350581
harry 0.1825304 -0.039936464 -0.20710972 0.13298345 -0.22536586 0.06929047 -0.16684438 -0.02509871 -0.05774208 -0.170129
aviaire -0.034637816 -0.06518006 0.02662055 -0.057640694 0.012212116 -0.18484174 0.07736577 0.036992755 -0.0115137175 -0.080250524
2902927 0.060906526 0.061017454 0.0058935233 0.05859982 0.05883607 -0.07589675 -0.1013371 0.049418874 -0.07345662 -0.04717965
abattoirs -0.07553646 0.00086682756 0.065993 -0.09753728 0.053088725 0.026462387 -0.021773515 0.009135817 0.07029011 0.084234454
lumineux -0.056518752 -0.020765414 0.028085867 0.0042961687 -0.07938557 -0.057975475 -0.06226603 -0.08198717 -0.039399445 0.009489057
aéroports -0.056215093 -0.030114949 0.06061617 -0.034805354 0.07240412 -0.01413525 -0.04111137 0.086855866 0.11076141 0.097808756
nature -0.143805 -0.03152762 0.07376206 -0.054715794 -0.06484758 -0.026419071 0.038594622 -0.03475718 -0.10541558 -0.057349395
possesseurs -0.055381455 0.0039329366 0.04481454 0.043163035 0.01785022 0.017288683 -0.09402443 0.028304687 0.039391007 -0.025467992
reptiles -0.0326725 -0.016618155 0.036875993 -0.055932205 -0.009635765 0.03267853 -0.13569847 -0.025730183 -0.05269086 0.018155882
métro -0.09251723 0.11811403 -0.0039789453 0.01763067 -0.040427536 -0.09300084 -0.07221786 -0.12005607 0.053756803 0.043364376
casques -0.05900327 -0.051615328 0.08538619 0.02244354 -0.10748355 0.0004790562 -0.21990597 0.059464153 0.048299875 0.074135885
contribuait -0.111125246 -0.019305605 -0.05432008 -0.044040736 0.009570802 -0.022714553 0.029987639 0.040016968 -0.022101808 -0.013946059
sexisme -0.09129944 -0.06932596 0.009950442 -0.049684122 -0.14760196 -0.02088318 0.096088134 0.11194892 0.055427566 -0.17891163
archosauriens -0.00564761 -0.053816848 -0.00794076 -0.0114101 0.048502736 -0.0314148 -0.085419975 0.031049786 -0.07327697 -0.044841163
différenciation -0.046841674 -0.024308212 0.050844092 0.0073819514 -0.009274114 -0.029968902 0.030032687 0.05339091 -0.03886749 -0.034916513
bram 0.1711204 -0.21353498 -0.046418887 -0.030947935 -0.1410771 0.04929469 -0.10930003 -0.22649609 -0.03347649 -0.13507864
revolution 0.004995419 0.01375497 -0.00796335 0.051051404 -0.07465384 -0.0635143 0.013887793 0.05735468 -0.036882937 -0.059573974
actif -0.16686821 0.032298867 0.070478134 0.09420401 0.038764853 -0.15298888 0.047675464 0.058988616 0.02948226 -0.045674413
hautes -0.14580576 -0.114936545 0.10435303 -0.06832929 0.020430183 0.08959668 -0.17534842 0.048235007 -0.103986435 0.055442464
prouvé -0.18369283 -0.007120371 -0.11476677 -0.013360414 -0.02705113 -0.048633877 0.024709089 0.10681051 0.07049021 -0.08772763
inférieurs -0.06839923 -0.06782226 0.03724136 -0.03077252 0.070583686 -0.034530416 -0.08027488 0.047859166 0.010717799 0.02310505
risquer -0.116577975 -0.15576756 -0.07086925 -0.05175352 -0.090604424 -0.004850222 -0.027347561 0.012777254 0.009337574 -0.06772645
biais -0.21652168 -0.06869984 0.04083012 0.037493926 -0.056787096 -0.027007354 -0.0010343418 0.15738411 0.015457296 0.021310356
8169 0.34518367 -0.03099139 -0.009061469 0.03783491 0.25572526 -0.21604294 -0.14002775 -0.038345978 -0.0495381 -0.032515578
sein -0.2510178 0.06658173 0.10229841 0.014281782 0.06981042 -0.060835805 0.084412 0.1411786 0.04002016 0.10499465
aéronef -0.06583525 -0.020610403 0.009610487 0.022197446 0.035139784 -0.17132539 0.02462935 0.037496485 -0.07480581 0.051007457
actions -0.12208319 -0.09259771 0.08038673 0.01285946 0.063418165 0.04647535 -0.046744924 0.16997021 0.026127793 -0.043529578
innovations -0.07235575 -0.035697363 0.062248643 0.005729361 0.004128518 0.02490942 -0.027350267 0.08565218 0.012425753 0.022982553
diversifiés -0.050252676 -0.044370957 0.061905395 -0.033715636 -0.002203758 0.011912554 -0.04595202 0.055148255 0.0573001 0.044416834
coffee 0.11311414 -0.09297476 -0.07402285 0.1366316 -0.159056 -0.07701141 -0.10232393 0.02174123 -0.0026150958 0.054477133
1943 -0.07026385 0.3155247 -0.08287661 -0.031936966 0.2960356 -0.036251843 -0.034782693 -0.0121710375 -0.14658397 0.04714073
ua 1.8722394 -1.7604473 -0.8087371 -0.22348367 0.30397436 -1.2786149 -0.8685457 0.19484726 -0.47673503 -1.0911131
42e 0.3100254 0.22121543 -0.07098393 0.11060798 0.37437606 -0.090567484 -0.03950368 0.025287703 0.021807602 -0.0116943205
points -0.105830625 -0.0988944 0.057371505 0.026738707 0.11055454 -0.040015314 -0.17925052 0.07013617 -0.02131425 -0.025732104
phylogénétique -0.014931104 -0.023914354 -0.0063325632 -0.02921581 0.0096107675 -0.07010652 0.043844767 0.060531825 -0.100903414 -0.06376821
presbytie -0.002961168 -0.09274335 0.020490212 -0.014410425 -0.011068543 -0.06634208 0.041188728 -0.034865063 -0.027158849 -0.09620025
page -0.061367653 -0.012066541 0.06606823 0.24522603 0.10896002 -0.10419981 0.021014016 -0.08482693 -0.047164112 -0.13045
éditions -0.019536674 0.09434723 0.053011443 0.04712189 0.02258359 0.108111165 -0.080668956 0.034832597 0.02700884 -0.01781983
consacré -0.10754445 0.049750663 0.030288868 0.017027434 0.005929337 -0.0013005063 0.026549375 0.024153467 -0.008005175 -0.037663992
particuliers -0.05029628 -0.031188332 0.059269547 -0.030620402 0.031680994 0.020682555 -0.034752678 0.02688292 0.068027854 0.009982582
scolarité -0.09429711 0.0027508028 0.04013477 -0.01955853 0.11589444 -0.011684108 0.040353872 0.005293589 0.03809966 -0.06898817
vingtaine -0.08917818 0.01749441 0.055162907 -0.0362899 0.06305929 -0.014345454 -0.14116943 -0.04008535 0.0755817 -0.01860191
navale -0.09660387 0.09793501 0.058183074 -0.042026866 0.07126115 -0.12503758 0.06412396 0.0074566393 -0.13311608 0.115823224
tchécoslovaquie -0.014538021 -0.03335044 0.014213683 -0.011242656 -0.0071108756 -0.01926333 -0.0049964106 0.014564459 -0.014125125 -0.018616319
freddy 0.080144875 -0.0017288774 -0.0974432 0.04798548 -0.20010316 -0.027934462 -0.08993752 -0.074123554 0.10625386 -0.16820525
cerveau -0.11722415 -0.028223753 -0.043969467 -0.0012296377 -0.13757673 -0.084884755 0.0017291879 0.015793063 -0.0075646825 -0.11120771
rage -0.221758 0.026149383 -0.13930935 -0.09001487 -0.12273805 -0.0828033 -0.051235124 0.01830285 -0.046805315 -0.20531866
langlois 0.0046726977 0.044590637 -0.052407917 -0.007946372 0.013950208 0.027676668 -0.0037772807 -0.07845708 0.03589631 -0.14591487
enfants -0.11035879 -0.0070345677 0.025958546 -0.021018129 0.025812965 0.10563381 -0.11146896 -0.0545419 0.093345225 -0.046200763
cliniques -0.054301478 -0.05494789 0.09221729 -0.052524976 0.063935935 0.03148336 -0.04203429 0.1171481 0.038236655 0.01756392
inviter -0.14456853 -0.024690924 -0.0842883 0.021349078 -0.05949849 0.09518027 0.0044370517 -0.006413193 0.14793026 -0.03604298
président -0.05060868 0.106794134 -0.06135726 0.0138639975 0.0611084 0.005394513 0.08559449 0.053885117 0.10420995 -0.030868618
25 0.8414824 -0.20909055 0.27319163 0.23351322 1.1574689 -0.38307464 -0.92264396 -0.23011474 0.21076421 -0.90730673
objectiver -0.09272053 -0.11558989 0.005271363 -0.051843915 -0.03105055 -0.004164932 0.09666374 0.084396005 -0.0017348757 -0.07323106
tisné -0.029538995 -0.022903599 -0.011073433 0.044531114 0.059416022 0.012382663 0.021631852 -0.00880765 0.0067425813 -0.04045376
xixe -0.13314076 0.029629912 -0.025180694 -0.3550336 0.26063472 0.03186337 -0.045027982 0.030957937 -0.22189185 -0.019948183
l. 0.8653835 -0.5954284 -0.15308768 0.11608162 0.72800905 -0.2824367 -0.28896248 -0.32656085 -0.5019839 -0.73259985
stable -0.11339767 -0.055235248 0.046687674 0.07312947 0.000103404374 -0.22148077 0.010648665 0.019567853 -0.030472523 -0.037934337
1340 0.10535978 0.14575955 0.022441572 0.013682816 0.48816177 -0.24341802 -0.23310237 -0.11266889 -0.17565468 -0.108881705
homogénéité -0.08061739 -0.049748614 0.0371347 -0.044040024 -0.005707089 -0.07773417 0.019904725 0.05680875 -0.06627784 -0.024424149
carré -0.11081612 0.019745152 0.05260376 0.017947748 -0.0650567 -0.2422518 -0.09422726 -0.19603293 -0.07251828 -0.018441439
utilisées -0.10154262 -0.059262414 0.061021656 -0.01970968 0.015110718 -0.03122178 -0.08361399 0.1039826 0.0019999724 0.043228015
causant -0.112089776 -0.026091835 -0.07966937 -0.04377561 0.01982506 -0.011514675 -0.082840994 0.046278328 -0.076154046 -0.05623451
bismuthure 0.0046809427 -0.02214622 -0.00037756376 0.034289043 0.06388952 0.017123906 -0.07571535 -0.044541493 -0.07754229 -0.076873384
inde 0.02059872 -0.07565169 0.03916732 -0.13011733 -0.16643625 -0.09656929 0.06549886 -0.117503576 0.0218754 -0.014174367
prolongé -0.11935015 0.00733502 -0.00790524 -0.0045807683 0.040339865 -0.09839525 0.0012025727 -0.0051053795 0.009891404 0.005360565
t' 0.37325776 -1.1039493 -0.89846945 0.10767304 -0.16553959 -0.25795406 -0.5419672 -0.171061 0.43738377 -0.8591971
juste -0.21332017 -0.08536594 -0.051518798 0.06462456 -0.082358696 -0.095080525 -0.084861025 -0.10625877 0.086268075 -0.12677394
villas 0.015172446 -0.011700138 0.028417835 -0.13171194 0.057653286 0.061110556 -0.15893224 -0.068918444 2.2730232e-05 0.17840914
support -0.08201565 -0.05738485 0.10738465 0.09649871 -0.08883466 -0.13949981 0.007458739 0.059681214 -0.0250798 0.014560914
altimètres 0.13192979 -0.12720452 -0.059763063 0.048698753 0.0874791 -0.080335595 -0.10437401 0.010562671 -0.08193694 0.029957175
exercices -0.077711895 -0.09100819 0.081266314 0.015914671 -0.0120401215 0.04152198 -0.068654366 0.068947494 -0.013953688 -0.011982383
escalier -0.06330758 0.004589396 0.03147311 -0.0054681026 -0.041502118 -0.066545546 -0.032053873 -0.13664998 -0.09109785 0.0071403473
prédation -0.07194963 -0.035423517 0.04790707 -0.10877413 -0.02108554 -0.052555807 0.05307316 0.08116408 -0.060216144 -0.08591321
brûlant -0.14865819 0.0066059004 -0.034894206 -0.0325026 -0.10146229 -0.026020154 -0.012720816 -0.04463274 -0.06937674 -0.012207407
jaffa 0.040404707 -0.026462065 -0.13317557 -0.06232058 -0.19744949 -0.12692443 -0.08059168 -0.01556456 -0.20872135 -0.059483528
walther 0.16749494 -0.09198438 -0.08234271 0.08026464 -0.033132583 -0.09668331 -0.014320012 -0.020788435 0.04101801 -0.10331115
1983 0.013450272 0.30394962 -0.023686618 0.03273416 0.25374985 -0.056837656 -0.024835512 0.09745573 -0.048848014 -0.05693523
48 0.9539293 -0.21689612 0.19562732 0.3340874 1.0749152 -0.44979846 -1.0270994 -0.20140745 0.1690242 -1.0551156
effectuée -0.09669959 0.014283307 0.026468627 0.03724747 0.06951069 -0.077832066 0.021493234 0.03347509 0.0055687884 0.0005743932
bibliobus -0.026821591 0.0129336985 0.049246937 -0.0085502975 0.04088245 -0.027721798 -0.011819369 -0.05240503 0.08595845 0.09676587
gruber -0.13406478 0.058721066 -0.056581724 0.086124174 0.063035175 -0.07446242 -0.060753208 -0.032093614 -0.043241054 -0.14843369
bourbince -0.036082618 0.016916815 0.007996023 0.02904779 0.033864915 -0.042474136 -0.0542458 -0.019878108 -0.001333886 -0.049353134
tarot -0.057413176 0.044708956 0.035219904 0.020758325 -0.1515859 -0.018849904 -0.011682743 -0.09852358 -0.0774235 -0.070643604
fonctionnaire -0.044224467 0.05171993 -0.018970862 -0.012589175 0.03034059 -0.02721813 0.06482748 0.009812573 0.045200925 -0.057425484
dheune -0.014163263 -0.059396967 0.009380568 0.07568961 0.016247747 -0.06714413 -0.036511764 -0.030186346 -0.065214515 -0.049196973
dès -0.4535121 -0.10182154 -0.1268566 0.15080419 0.2846914 -0.13216281 -0.124561824 -0.12868863 0.12789336 -0.10913646
salt 0.35360968 -0.2326787 -0.13665845 0.10073684 -0.2737708 -0.2892588 -0.13412258 0.045436844 -0.22908245 0.07394542
annuellement -0.073800966 -0.016522896 0.03254602 0.0071084625 0.10998785 -0.046831608 -0.029893478 0.016106218 0.02463904 0.026443658
atome -0.09807122 -0.023164617 -0.026442608 -0.027460895 -0.05900202 -0.2122749 0.032869197 0.05084604 -0.21766412 -0.19364797
parvenus -0.15176177 -0.012994988 -0.040657498 -0.06739167 0.07927302 0.033083722 -0.0830324 0.05281157 0.054620102 0.0068338923
distinctions -0.05545816 -0.008714968 0.030416993 -0.034778696 0.027058348 0.048023343 -0.016293336 0.10521967 -0.025501184 -0.017479734
groupement -0.032977093 -0.008981112 0.053361587 0.0035093476 0.06924178 -0.033095915 0.05651888 0.02712276 0.035983924 0.028390398
carl 0.24650738 -0.03564968 -0.21811084 0.14445578 -0.20745689 -0.019210307 -0.047328617 0.057179756 -0.06593768 -0.26148456
campeur -0.04928529 0.07175395 -0.022995632 0.035796165 -0.11925345 -0.08560477 -0.057256766 -0.09873071 0.13409169 -0.036606774
aviaires -0.030299421 -0.090735964 0.03872171 -0.11331105 0.04620705 0.043673523 -0.10467665 0.034344032 0.023021452 0.022848602
massacre -0.098841466 0.06235128 -0.06582764 -0.060277957 -0.008855226 -0.016228925 -0.025426993 -0.00653238 -0.01218145 -0.08800474
national -0.055954568 0.041432526 0.046740923 -0.018081274 0.059794478 -0.07718994 0.080346696 0.072718315 0.0077473153 0.020652572
rythme -0.17221726 -0.054080572 0.0065761567 0.020031953 -0.0686431 -0.07702278 -0.04496268 -0.0060176994 -0.008506527 -0.037133932
existait -0.12546805 0.008271149 -0.007931694 -0.018837383 0.02455854 -0.09464582 -0.004449621 0.028225623 -0.00075460336 -0.043189835
impact -0.16808383 -0.06695827 0.07614891 0.035650093 -0.039148916 -0.13188034 0.062284388 0.17274086 -0.0043307603 -0.08783833
nos -0.31235576 -0.387478 0.2842677 0.0804571 0.085585564 0.40572268 -0.42762074 -0.005509725 0.2406379 -0.085697755
stations -0.066560484 -0.025498502 0.11188879 0.010587192 0.06393663 -0.034570448 -0.11342105 0.04100216 0.023404207 0.1258682
font -0.31731355 -0.17170583 0.0032753549 -0.0073407292 -0.09593503 0.059946008 -0.21786654 0.1360272 0.13537692 0.014255027
sais -0.17801696 -0.13892172 -0.17049842 0.011255878 -0.25421798 -0.082904324 -0.06745921 -0.072197884 0.20611095 -0.21679066
guan 0.09388717 -0.22721589 -0.011034824 -0.12140584 -0.18445091 -0.1772208 -0.14958164 -0.016097773 -0.40238565 -0.027247846
juhaiman -0.028619898 -0.036561944 -0.030427884 0.13878773 0.04287764 -0.020376112 -0.04854792 -0.0033910125 0.02032122 -0.11378355
soufre -0.10465532 -0.042797115 0.042880327 -0.1012947 -0.021437852 -0.15169254 -0.07322185 -0.059045494 -0.12624769 -0.070654266
précision -0.08272164 -0.017389882 0.050642163 -0.0023240503 -0.021639653 -0.07398114 0.0015008897 0.007615795 -0.040764682 -0.06354815
meure -0.17899504 0.0076740794 -0.24772234 -0.023799881 -0.08478366 -0.014992224 0.009204976 -0.107693434 -0.10084298 -0.14746067
prix -0.07613494 -0.08081488 0.12766352 0.056475263 0.012223328 -0.123012505 -0.10914616 -0.0138864275 0.11087707 0.033234883
amusantes -0.07712399 -0.07243014 0.005963062 -0.03428363 -0.10132314 0.08005153 -0.114376605 0.0061637433 0.0162037 -0.011688057
expérience -0.08984869 -0.0013142129 0.01156302 0.03196287 -0.018068932 -0.02774608 0.04945032 0.014422966 0.018632121 -0.041903764
travailleurs -0.06502485 -0.016425887 0.024774939 -0.030206492 0.052145094 0.00951068 -0.029774964 0.06578729 0.057637367 0.0041245157
armement -0.091377705 0.0059540393 0.08404817 -0.033764243 0.018010123 -0.09401619 0.014100982 0.075828165 -0.015478545 0.03207701
par -0.31572846 -0.0333727 -0.037660755 0.16012499 0.23665443 -0.041166194 -0.13089997 0.073355444 -0.012235388 -0.22326338
moléculaire -0.03210112 -0.028181601 0.053682256 -0.0038013638 -0.026487976 -0.12798594 0.017948322 0.034099918 -0.08148445 -0.030378986
cherche -0.13583587 -0.03603895 -0.069032356 0.03813705 -0.09930124 -0.015047312 0.03136264 -0.015057384 0.054808997 -0.04728157
permettre -0.13413146 -0.059384424 -0.01053785 0.016499983 -0.02824183 -0.009775101 0.004594283 0.03919403 0.05430634 0.031840906
israélienne -0.049447704 0.0122135095 -0.015513241 -0.00092744234 -0.01549401 -0.041884284 0.038352527 0.10323387 -0.019577 -0.01065321
cloisons -0.02624807 -0.10768828 0.10466821 -0.060911614 -0.012281792 -0.03277088 -0.12452583 -0.043207385 -0.014764891 0.040567048
asie 0.11598118 -0.16868234 0.16683409 -0.10711841 -0.15073355 -0.18326753 -0.059066188 -0.13220839 0.086696714 -0.07119676
jura -0.052446883 0.038248837 -0.13109756 -0.07377045 -0.034834296 -0.04891274 0.031808384 -0.19870591 0.0021250944 0.023208594
bernadotte -0.058413364 -0.034725897 -0.0050728293 0.055457115 0.031086404 -0.008903267 -0.022961752 -0.02220682 0.0131051 -0.07037474
croissant -0.09891942 -0.015996568 0.050425872 -0.017676609 -0.004696806 -0.061809693 -0.044623755 0.033619672 -0.016688807 -0.026905604
arizona 0.07989498 -0.007829554 -0.036252588 0.015816584 -0.12898941 -0.123659216 -0.12352352 0.028939199 -0.037148397 0.05450734
projectile -0.036209594 -0.010498782 -0.02500961 -0.0040164674 -0.013025057 -0.12536149 -0.034400374 -0.032959267 -0.06860304 -0.02056309
amphisbaenia 0.0018796116 -0.04468163 -0.050694194 0.043250024 0.06337228 0.012839104 -0.031489417 0.005426761 -0.07586164 -0.036624473
arguments -0.10637597 -0.045529705 -0.015026133 -0.017856063 -0.006681634 0.019608855 -0.04193528 0.11301491 0.049179796 -0.10855392
sématilide 0.0033683386 -0.019914927 -0.027022772 0.033745497 -0.023988415 -0.033112038 -0.02452842 0.0097220475 -0.0385049 -0.04122509
perspective -0.103507556 0.0030462758 0.023406414 -0.0018659242 -0.008951215 -0.023788765 0.044226594 0.027044801 -0.022578662 -0.043412272
solliciter -0.10753215 -0.044009738 -0.020042906 0.020181958 0.011836247 0.02521032 0.03268793 0.026404021 0.081829 -0.011327186
galla 0.054877654 -0.049886473 -0.09717656 -0.03272848 -0.08221381 -0.10777409 -0.07522075 -0.0803582 -0.07608743 -0.08888676
tricolor 0.099603064 -0.002775037 -0.0745879 0.0065404447 -0.051875927 -0.16234463 -0.054968774 -0.02861486 -0.030529032 0.040707335
james 0.22273646 0.07745728 -0.2149229 0.08050485 -0.15234622 0.023583628 -0.14213376 -0.0038885847 -0.049711943 -0.18213901
allongement -0.068457566 -0.058535673 0.06539407 -0.019480396 0.020841688 -0.089683786 0.0077390494 0.022147138 -0.043066993 -0.042387072
problèmes -0.08806258 -0.090904795 0.027729545 -0.030968744 -0.029988075 0.018600333 -0.040014435 0.10840207 0.038673945 -0.05625184
risques -0.09565713 -0.12600958 0.08232681 -0.030365206 -0.015686095 0.0095534315 -0.023793269 0.12800139 0.04909101 -0.061307415
programmeurs -0.035100996 -0.020609898 -0.027571265 0.026072036 -0.022520917 0.004968512 -0.058760166 0.13626035 0.0801209 -0.0025071255
bob 0.06969419 0.14397156 -0.2895796 0.13128218 -0.4901484 -0.33462352 -0.32336673 -0.030536309 0.020945624 -0.1360314
1918 -0.06840159 0.30707845 -0.057446793 -0.06358947 0.3433746 -0.025282644 -0.056320608 -0.008202012 -0.19812235 0.0060979477
aura -0.3295472 -0.117025405 -0.08839067 0.081132054 -0.0125238 -0.107078895 0.0072633876 -0.0041245944 0.13508233 -0.089063525
soutenues -0.09652905 -0.02067947 0.014099273 -0.034768105 0.08266222 0.031021511 -0.057787374 0.09165374 0.026131462 0.028850231
médical -0.08375724 0.0037525669 0.046913143 0.017064624 -0.006271109 -0.078801334 0.10190478 0.06218071 0.042873453 -0.013473692
rochelle 0.029767456 -0.0322224 0.07502429 -0.018044803 0.020079454 -0.037739217 0.0109039275 -0.18516518 0.090219095 0.014787056
arcade -0.035551686 -0.0014659971 0.047854446 0.032935973 -0.13644214 -0.14815943 -0.08991281 -0.022447461 -0.14849018 0.06376245
transportait -0.048774153 0.028089736 -0.06952485 -0.043105327 0.010030108 -0.029441303 -0.045446564 -0.023818957 -0.016639765 0.04487846
bonnot 0.058044832 0.016822591 0.019791037 -0.018977666 -0.056141675 0.02576133 -0.030677518 -0.15111859 0.07086196 -0.0834404
champion -0.04516317 0.10245703 -0.046786405 0.0010958005 -0.028360326 -0.07122627 0.013421734 0.026460625 0.05295201 -0.033416472
romantique -0.06494487 0.06997298 -0.043576438 -0.013159 -0.07744128 -0.009620532 0.02236479 -0.0812398 -0.08721579 -0.03881343
détachable -0.034074455 -0.028972477 0.0556452 0.06379811 -0.057028864 -0.099616624 0.013782026 -0.0047488073 -0.057335835 0.0018060564
années -0.16532283 0.0022925825 0.012240296 -0.024430735 0.09541703 -0.006872184 -0.10359223 0.058351696 0.053727616 -0.014980932
damrey 0.047647282 -0.06355728 -0.07844903 -0.057923704 0.05049307 -0.0043045105 0.011480325 0.0017978679 0.011593441 -0.09675357
brèves -0.12576194 -0.07257088 0.115333974 -0.0068340837 0.01313971 0.11917911 -0.13296759 0.07978793 -0.010831016 -0.061457094
vitesse -0.09258968 -0.058073595 0.06357102 0.038007617 -0.0026025649 -0.15412453 -0.055104703 -0.0027368206 -0.05816611 -0.017993638
chlef 0.064138874 -0.14612082 0.073884256 -0.093657725 0.14066885 -0.10334924 0.058140296 -0.11067264 0.06342952 -0.014981337
hotz 0.2615925 -0.09603419 -0.4166748 -0.029080354 0.16843536 0.07086602 -0.09587422 -0.088963866 -0.055708434 -0.07491896
quelquefois -0.10956571 -0.050567485 -0.02096282 -0.048559822 -0.00598166 0.0106978705 -0.04927196 -0.029657086 -0.023685621 -0.054143716
équilibre -0.11380037 -0.03877401 0.02021776 -0.019990105 -0.029706234 -0.06424988 0.04661212 0.0067768553 -0.062001772 -0.042035338
arrêt -0.15253267 -0.015900586 0.03376182 0.03699428 0.078402676 -0.1279273 0.019813888 -0.016130036 0.027117113 -0.026300464
établie -0.13591552 0.05247496 -0.0060423054 -0.0007498401 0.1619522 -0.04065658 0.054242752 0.03737664 -0.03654627 0.0071769906
chypriote -0.04733023 0.0315205 -0.020842478 -0.037032805 0.026725512 -0.0832506 0.053486325 0.06354758 -0.016525894 -0.00082457624
commercialisée -0.038030457 0.025471533 0.010995679 0.037670705 0.016513372 -0.07141813 -0.014342091 -0.0006912318 0.025217416 0.047548164
thaïlande -0.016502084 -0.06682098 0.08262844 -0.0049240664 -0.09364356 -0.004169778 -0.05648183 -0.044885248 0.060991623 -0.00046199746
annonçait -0.12628223 0.03372458 -0.069627136 0.03337393 -0.0032815905 -0.030456398 0.032093983 0.030909326 0.030324388 -0.012122267
323 0.3554257 0.23121828 0.17021483 0.16339275 0.6871757 -0.27439278 -0.648461 0.0508352 -0.042656958 -0.40839627
passage -0.15358207 0.047498733 0.019119142 0.02463728 0.01233128 -0.077066824 -0.046058856 -0.050125718 0.017835831 -0.050940156
mantoue -0.06311889 -0.053572234 0.007305211 0.09311902 0.022304708 -0.020896798 -0.045153897 -0.064856395 -0.0908978 -0.11223467
38 0.98073137 -0.11912244 0.19365914 0.2857249 1.0546843 -0.4869732 -0.93413115 -0.2959162 0.21693069 -1.1163088
game 0.052350156 -0.094767585 -0.12587953 0.2965752 -0.29143286 -0.24839394 -0.1240056 0.1877971 -0.039989717 -0.04010019
libéral -0.075632945 0.066663824 -0.056078043 -0.056204192 0.04695898 -0.07170339 0.14907658 0.08969828 0.04998696 -0.10233644
cisss -0.06345683 -0.020033509 -0.061743777 0.029723844 -0.096795134 -0.026386399 -0.12643988 -0.034070224 0.06775759 -0.15395537
1854 -0.09601882 0.3023738 -0.058859944 -0.113841474 0.41217896 -0.041203417 -0.0327467 -0.12218362 -0.2856707 0.03054618
toits -0.075496525 0.016998094 0.09136357 -0.13381198 -0.04983083 0.008986507 -0.2085453 -0.16864957 -0.021190222 0.15991616
installations -0.054704122 -0.0203874 0.06908421 -0.00964372 0.026147742 -0.001633602 -0.06252008 0.03603781 0.019994583 0.064056575
exemples -0.09864937 -0.05060052 0.07174292 -0.01579297 -0.004284326 0.05717619 -0.084313355 0.09666463 0.019063026 -0.079766504
169 0.3324087 0.18534696 0.2455674 0.16122943 0.69734544 -0.21033071 -0.5841688 0.007113889 -0.051116824 -0.41836894
piano -0.036029927 0.1015435 -0.03892169 0.043055244 -0.14517902 -0.074394286 -0.1414954 -0.08299149 -0.13725972 -0.017562352
affiche -0.12954426 0.022232575 0.008184317 0.09117576 -0.030385738 -0.07817374 0.012666268 -0.018513717 0.03153138 -0.007394474
crypte -0.098530605 0.07373898 0.0026125254 -0.040347256 0.053771533 -0.027318165 -0.066243105 -0.09842452 -0.16211648 0.050460793
torturés -0.056946993 -0.01868676 -0.07239691 -0.11897817 -0.009781738 0.104856364 -0.11817962 0.050739374 0.008099414 -0.032453086
mouvement -0.095738515 0.0012422521 0.020464985 -0.010719938 -0.013191074 -0.05720538 0.03036365 0.05625308 -0.058785904 -0.038200185
automne -0.09862282 0.067014344 0.046383332 -0.010263175 0.042061936 -0.032943875 -0.050371837 -0.04979896 0.009265989 0.0050786575
abordés -0.10968308 -0.028463056 0.057354223 -0.02757456 -0.00029218942 0.024375457 -0.0030721612 0.1397264 0.05194992 -0.058557518
transporté -0.09399253 0.036357213 -0.043333553 -0.008795564 0.02620614 -0.045242388 -0.037097614 -0.07148332 -0.019622352 0.031945486
dégaine -0.111633375 0.005512275 -0.11610949 0.032662064 -0.1922018 -0.07302606 -0.0122817885 -0.034663197 0.058534604 -0.052991137
26218 0.26467097 -0.04785647 0.023170479 0.02905472 0.24111852 -0.11708675 -0.16485411 0.09600444 -0.12856735 -0.10299699
abattez -0.07823084 -0.07049522 -0.050827842 -0.020923939 -0.14165074 0.05487018 -0.039517507 -0.02407564 0.025653316 -0.027384788
restés -0.17220247 -0.019475702 -0.024844095 -0.0785053 0.091746345 0.07331655 -0.2485497 -0.0021066368 0.11134267 0.008633976
1848 -0.10996773 0.2702334 -0.014488045 -0.15401238 0.43440747 0.031227555 -0.0038981799 -0.061495252 -0.20319802 -0.057006054
étudiant -0.09273929 0.0698898 -0.04007601 0.041865256 0.04311262 -0.04530115 0.07422423 0.027796201 0.06894721 -0.0752306
230000 0.128439 -0.055257786 0.10328734 -0.0153803555 0.18606314 -0.06954052 -0.14128767 -0.06533055 0.07933285 -0.06549292
parure -0.05873291 -0.0036310807 0.01818725 -0.038864717 -0.119251244 -0.01936408 -0.0713645 -0.21326981 -0.1570445 -0.030848457
revient -0.17682247 0.035788745 -0.07723037 0.043630075 -0.01066214 -0.042987116 0.024213504 -0.005877908 0.0412262 -0.038686432
stendhal -0.010537731 -0.08411481 0.051769633 -0.046304513 -0.07663141 0.011578719 0.07187299 -0.11352893 -0.08431193 -0.12335236
diamètre -0.04375388 -0.046021823 0.05152162 0.01731284 0.02875354 -0.176433 -0.11370772 -0.07756755 -0.07748025 0.021907391
auchinleck -0.035911527 -0.024551587 -0.0055185757 0.03519928 0.04000383 -0.040050607 -0.08175817 -0.020103116 0.004205763 -0.09751338
avens 0.057325453 -0.14313239 0.008260259 -0.11072427 -0.021985276 -0.0028467067 -0.14081283 -0.09600405 -0.07286823 -0.018501975
marie -0.08243046 0.1043437 -0.19803509 -0.027609771 -0.06827608 0.012452211 0.0023148581 -0.20278619 -0.041468203 -0.013078861
chabot -0.00562315 -0.03908655 -0.004823172 -0.077694915 -0.0071323486 -0.09228477 -0.061117884 -0.1500362 0.03021436 -0.16371985
série -0.12322824 0.0758128 0.08952386 0.11541474 -0.053743303 -0.07464576 -0.1443977 0.11437546 -0.06940327 -0.03508074
qu' -0.42947158 -0.1353469 -0.34499362 0.046094164 -0.0046005524 -0.19733214 -0.20064698 0.014009442 0.17547992 -0.17035104
désorganisa -0.030744657 0.011046315 -0.01090357 -0.10021856 0.04087534 -0.014723889 0.02775014 0.047854614 -0.08774543 0.033076134
13,13,5 -0.063415624 0.09627687 0.05266701 0.02795641 0.030250376 -0.015412762 -0.107149795 0.051690757 -0.022766665 -0.053614028
masse -0.22760314 -0.07037541 0.09578477 -0.038357362 -0.0068156794 -0.17005381 -0.054330442 0.029046208 -0.085094266 -0.086440384
abord -0.30959362 0.023702573 -0.046682768 -0.028632566 0.006996816 -0.026859088 -0.030249925 -0.0113661215 0.074560285 -0.07895725
praticien -0.0516976 0.008425051 -0.030855395 -0.011054071 0.050276652 -0.03893974 0.10943274 -0.0026978608 0.040934715 -0.06719603
abordait -0.13974337 0.018455004 -0.047472376 -0.0368019 -0.024200866 0.030497015 0.04860195 0.078512155 -0.042915944 0.0010094558
adorée -0.054935258 0.045427144 -0.15132777 -2.7430058e-05 -0.0897704 0.005113803 -0.070263304 -0.1342041 0.006545624 -0.07142895
raisonnements -0.06410593 -0.062481187 -0.010801631 -0.0560155 -0.01804341 0.044224154 -0.027850345 0.06308144 -0.0094307205 -0.08237364
marina -0.005246371 0.06992155 -0.013650588 0.032583665 -0.051199198 -0.07193344 -0.048097394 -0.1337282 -0.017486764 0.11109896
chiens -0.094285 -0.02490128 0.034680385 -0.047303587 -0.03942798 0.07970036 -0.18837653 -0.058816176 0.08816659 -0.037358075
crue -0.27323857 -0.01065447 0.02080651 -0.13744897 0.022422677 -0.15680462 -0.006952872 -0.27957866 -0.2589411 -0.13602
msi 0.73696357 -0.5897361 -0.12024827 0.14649624 0.037343677 -0.61627007 -0.1982841 0.08017074 0.18773566 -0.25854748
apparu -0.17345643 0.054341394 -0.06861339 0.04469327 -0.018045247 -0.13151172 0.0053951116 0.029575694 -0.010804743 -0.059555423
long. 0.11417444 -0.25204962 -0.06640594 -0.05705922 -0.032231256 -0.2078398 -0.14526178 -0.17008682 -0.022733022 -0.15661426
sombre -0.15096009 0.010688672 -0.07762489 -0.032298673 -0.16636764 -0.05983162 0.014125667 -0.0655303 -0.1731407 -0.049405452
duc -0.021671623 0.44999436 -0.49331445 -0.2076535 0.26395023 0.030794926 -0.12083241 -0.27339596 -0.20312963 -0.13515854
coréen -0.0068857907 -0.006889604 -0.05040152 0.04681334 -0.10436674 -0.12728313 -0.06465935 0.11642692 -0.0054540276 -0.036360662
destructions -0.06613655 -0.044523954 0.033544786 -0.07701518 0.04675628 0.025974773 -0.065423846 0.056275733 -0.03216389 -0.029183106
accueillir -0.09667496 -0.0052640075 0.001305437 0.009900429 0.0279182 0.0057345843 -0.0359437 -0.049034856 0.07659594 0.023385428
leuven 0.16562958 -0.025195945 0.033422504 0.0018286825 0.014744001 -0.03459396 -0.07050643 -0.023999458 -0.0056227255 -0.06793458
plus -0.26003358 -0.1468892 -0.028755661 0.020053975 0.03307085 -0.025925621 -0.18087308 0.001107227 0.055033203 -0.10044867
affectera -0.12786071 -0.05248152 -0.03007957 0.044381656 0.016695611 -0.049683012 0.041744657 0.093985245 -0.0047761714 -0.0051678885
éviter -0.20749514 -0.17443657 -0.019780744 -0.023495588 -0.11686342 -0.0045229523 -0.03739236 0.055249166 0.03969521 -0.0432157
affirma -0.16756907 0.07741572 -0.20753479 -0.037731957 0.040341355 0.016527168 0.035620645 0.09486601 -0.069764204 -0.03753323
actinopterygii 0.009611834 -0.071862474 -0.009010974 0.039792303 0.02652809 -0.072383195 -0.05541318 0.0075165755 -0.042565864 -0.05745983
abattues -0.13211721 -0.023330336 -0.03978365 -0.123977184 0.11497981 0.02383753 -0.1095337 -0.029245459 0.010888783 0.04264141
prendre -0.16678953 -0.049037628 -0.021565672 0.03953817 -0.03402625 -0.018038806 -0.06579539 -0.021614812 0.068663254 -0.036541477
lancement -0.07700137 0.011854211 0.062301327 0.08807843 0.0061466414 -0.07890276 0.010537446 0.059725426 0.05092028 0.027274784
solution -0.10395601 -0.054614585 0.032969426 0.074835874 -0.04982722 -0.106263034 0.061667446 0.03430175 0.025888754 -0.047528233
thérapie -0.07606025 0.0046219593 0.027147615 0.027141258 -0.09852988 -0.020262502 0.032536298 0.046995033 -0.06164529 -0.085609466
york 0.18656808 0.06853075 -0.087834254 0.04940794 -0.16117606 -0.16922233 -0.110177964 -0.12207751 0.038472034 -0.016712692
terrible -0.11885346 -0.011302131 -0.0674354 0.0062411493 -0.09484835 -0.044866752 0.0014604299 -0.06372362 -0.040235825 -0.11251684
nationale -0.07019996 0.034553904 0.058097422 -0.03532201 0.08817417 -0.053326376 0.087350644 0.060199942 0.0017710892 0.0006085457
weizsäcker -0.068661526 -0.011873299 0.01042422 0.036557943 0.023085544 -0.011251851 -0.019906854 0.007125836 0.0062094005 -0.08525543
sculpture -0.071445495 0.06419357 0.039703973 -0.0136463605 -0.06733693 -0.047473952 -0.008687276 -0.07802575 -0.12937112 0.024671547
cause -0.2553448 -0.045174804 0.002623573 -0.042280693 -0.044471793 -0.08174948 0.0046821833 0.069127485 -0.044825196 -0.17698024
longueur -0.10912005 -0.02927609 0.05194237 0.031975836 0.012447001 -0.11891754 -0.09324903 -0.038289573 -0.09626154 -0.035551667
lion -0.042656656 0.144774 -0.100370154 -0.06453708 -0.13443281 -0.14369068 -0.1492565 -0.21954423 -0.116817236 -0.13412674
décoré -0.07879625 0.06715985 -0.053625524 -0.054460652 -0.08064221 -0.04848081 -0.030351559 -0.16892591 -0.029635925 0.06913564
buts -0.12579049 -0.025032472 -0.082986936 -0.040772565 0.31098843 0.068466105 -0.18331239 0.24411589 -0.010748982 -0.07175844
bloch 0.116950266 -0.00011017348 -0.030235477 0.07802448 -0.11662357 -0.036682088 -0.03289014 -0.075963914 -0.012196019 -0.030288354
nombreuse -0.117779516 -0.008617753 0.009670322 -0.027296782 0.017348861 -0.019907193 -0.0064969016 -0.050799783 0.025274504 -0.01680275
hamilton 0.056133613 0.0063207434 -0.075750545 0.07010731 -0.09603796 -0.095065616 -0.07566514 -0.0032870292 0.0013431045 -0.044992756
antwerpen 0.17479828 -0.08422393 -0.015443541 0.008175501 -0.02470972 -0.04487938 -0.023160012 0.010543094 0.0047493847 -0.01871834
don -0.28144157 -0.0064249486 -0.09124389 0.16335174 -0.0727176 -0.011943813 0.05413837 -0.061186515 -0.044479854 -0.25963312
transitoires -0.05491849 -0.064098194 0.06887878 -0.050381172 0.0283203 -0.006359912 -0.04304354 0.088712774 -0.012481563 -0.023859594
maritime -0.06361842 0.031591862 0.06642441 -0.03002097 0.05137514 -0.099893294 0.09393949 -0.025897631 -0.07179629 0.070305206
parts -0.1241379 -0.098886386 0.05852218 0.01744958 0.074685395 -0.040079266 -0.21562976 0.042524517 0.009329758 0.014332452
océan -0.073170505 0.0058833584 0.019096725 -0.06281677 -0.08981319 -0.10117174 -0.0621083 -0.078356504 -0.12494057 0.00042885542
midaxx 0.033698868 -0.04707157 0.012211336 0.022317719 0.017068421 -0.011435365 -0.0070421025 -0.0116930185 -0.057689965 -0.018093903
amérique -0.073815264 0.020605793 0.04322479 -0.039500304 -0.08611015 -0.037881043 -0.032470074 0.018109221 0.00434826 -0.040824078
oppose -0.23506565 0.042302005 -0.16182572 -0.07719465 0.00027617812 -0.018511778 0.08335555 0.12773006 -0.021027384 -0.06227473
pont -0.15643781 0.17023967 0.040880382 -0.00028494498 0.065159515 -0.23164098 -0.14604574 -0.28619143 -0.12983513 0.104248196
soumis -0.19332878 -0.05016265 0.012906986 -0.012526557 0.059621442 -0.015093297 -0.012558174 0.12263773 0.010256106 -0.08357345
connaissance -0.08534419 0.0041998043 0.00917365 0.013683967 0.0035096158 -0.0006342239 0.037954528 0.020036194 -0.0043913284 -0.05257406
pouvant -0.17263347 -0.14186114 5.1160656e-05 0.034440763 0.040824167 -0.041129258 -0.08721306 0.032766294 -0.027863428 0.0084423
thématiques -0.047644123 -0.04050048 0.102092855 -0.022234347 -0.0012086586 0.03570276 -0.042639207 0.076704435 0.006663717 0.010647814
partir -0.11786002 -0.023220634 0.039767545 0.05997297 0.11840959 -0.066289485 -0.11201828 -0.032365024 -0.0015936553 0.009075433
vinyle -0.040611148 0.01668833 0.040520545 0.08878311 -0.17132734 -0.16654633 -0.091810115 -0.009346494 -0.090758845 0.04570957
semi-translucide 0.009420796 -0.003470576 0.0020325924 0.011217545 -0.036027204 -0.06217465 -0.024779726 -0.028509064 -0.044586085 0.02544501
apparemment -0.09680438 -0.02574679 -0.038426742 -0.0068785804 -0.028359437 -0.027853254 -0.050349463 0.017330099 0.031960946 -0.059557356
minutes -0.05140742 -0.03803242 -0.021176755 0.027575895 0.029285967 -0.027002286 -0.1154488 -0.05907063 0.033189036 0.033267695
afrique -0.009194514 -0.07024482 0.10101035 -0.06334379 -0.045511447 -0.06644508 -0.0032709963 -0.015115953 0.057559207 -0.08826073
saurophidiens -0.045681227 -0.0017448055 -0.026273023 0.045965206 0.0068068486 -0.01881603 -0.04229156 0.012702774 -0.036074616 -0.041902382
loi -0.30832326 -0.011133116 0.0708653 0.024100676 0.22648364 -0.09930587 0.3626699 0.24448806 -0.029330075 -0.39054886
traversant -0.09177763 0.01720552 0.004399209 -0.03217325 0.007362922 -0.03712826 -0.0512935 -0.06556318 -0.069376126 0.061792627
opposant -0.1253587 0.043139104 -0.09544824 -0.06225584 0.023389166 -0.016468763 0.0559578 0.09146134 0.017697845 -0.034751575
politiques -0.08813516 -0.043139387 0.03695343 -0.08912001 0.041007757 0.0693205 -0.013835465 0.13828202 0.04433704 -0.055202443
1614 0.071818046 0.21766362 -0.011762904 -0.09050014 0.44962656 -0.08636208 -0.10755351 -0.061825715 -0.25339237 -0.077247284
arrivent -0.13639787 -0.022992617 -0.015826993 -0.007748571 0.008675463 0.01261519 -0.15371104 0.025398768 0.11394886 0.01933294
envoyés -0.1163293 0.00045406073 0.009997565 0.01396463 0.08666186 0.07247069 -0.13608792 0.08088365 0.10117355 0.04451224
varie -0.21731807 -0.084640294 0.059577513 0.002787901 0.053172685 -0.22107288 -0.050490934 0.01748867 -0.037832145 -0.05936018
idées -0.21955757 -0.13905707 0.050603867 -0.045794845 -0.12681453 0.16604476 -0.10063854 0.060435914 0.016669977 -0.10953227
pourrait -0.17385392 -0.06841337 -0.10015871 0.046410315 -0.045333866 -0.06882911 0.03347886 0.035309978 0.019828789 -0.028623888
trouver -0.15270887 -0.0556643 -0.015207629 0.040510222 -0.062387787 -0.01306593 -0.058306184 -0.03536535 0.057658315 -0.022216214
constate -0.16407102 0.018784758 -0.081541434 -0.006300339 -0.0068187057 -0.02519628 0.016234573 0.05599574 0.055512182 -0.06648507
textes -0.13075858 -0.04327404 0.08267629 -0.024327539 0.023352671 0.1290569 -0.085017204 0.10897205 -0.016633173 -0.12386773
comprendre -0.10843023 -0.03746244 -0.03059528 0.004185805 -0.041658584 -0.012207386 0.022578016 0.03867846 0.038684834 -0.07869729
cubaine -0.12261202 0.052948102 -0.007379479 -0.04748615 -0.007064424 -0.018269666 0.028585305 0.04949083 -0.02381982 -0.033520617
générique -0.061867155 0.03448048 0.027609982 0.07339006 -0.079272315 -0.07905898 -0.00071536563 0.041388735 -0.04141333 -0.05237548
segments -0.06686369 -0.08576775 0.11462389 0.041658055 0.001804767 -0.075676106 -0.13022734 0.1031287 -0.033565767 0.038983215
difficultés -0.08504527 -0.04886502 0.018042946 -0.03874378 0.027044391 0.0329837 -0.019476047 0.060842037 0.03200878 -0.0347739
alimenté -0.13291088 -0.034839 0.023693806 0.021862235 0.0069937175 -0.05118809 -0.006398489 0.029232139 -0.02716418 0.009594837
automatique -0.061024975 -0.03627146 0.08488139 0.055990376 -0.04087328 -0.100655735 0.03543678 0.012282019 -0.027674679 -0.0134300245
rectiligne -0.05823229 0.005222826 0.030694736 -0.020198861 -0.0040280977 -0.10930114 -0.014343547 -0.07104489 -0.11507024 -0.0067680576
acanthes 0.024164809 -0.0697559 0.031499617 -0.20346306 0.03739583 0.021979919 -0.08953294 -0.18038003 -0.14242306 0.00882791
1811 -0.070997 0.28328902 -0.015769787 -0.12166071 0.4538647 -0.04488964 -0.061874878 -0.12528913 -0.29255038 -0.020149946
saint-saëns -0.0468715 0.0012485691 0.0043088854 0.03178625 0.040682334 0.007277167 -0.01881162 -0.079601504 0.010600095 -0.0315984
swingle -0.090393424 0.019127568 -0.026191557 0.1257371 0.024329906 -0.01755397 -0.09693062 -0.019177118 -0.01801652 -0.072871424
milliards -0.01596108 -0.07797054 -0.00316862 0.0019148029 0.107561916 -0.046750847 -0.09664191 0.05096559 0.041640125 -0.055977065
calottes -0.03128817 -0.09336367 0.089076236 -0.08519591 -0.023534257 -0.03822075 -0.14198276 0.006988935 -0.081159204 -0.0054347767
leigh 0.19752833 -0.0076233074 -0.19513918 0.02179766 -0.1400801 -0.14122874 -0.16967396 -0.002768116 -0.08901214 -0.039280076
aprés -0.09111713 -0.15089615 -0.0335335 0.087616235 -0.02482779 -0.057435542 -0.055665836 -0.14085165 0.11041378 -0.1585784
fesses -0.03978293 -0.10623174 -0.06286642 -0.09098607 -0.13781607 -0.03283152 -0.16690578 -0.10960006 0.056063026 -0.073700756
femmes -0.13230014 0.004584273 0.04698013 -0.07693647 0.06338868 0.12763171 -0.12568589 0.042920582 0.0530518 -0.07902414
xive 0.12126782 -0.23498464 -0.10904425 -0.36202833 0.3531328 0.010621419 -0.0064211763 -0.12421655 -0.2749543 -0.110823534
surfaces -0.08284167 -0.095571026 0.14493428 -0.030875716 0.00944054 -0.049468234 -0.13964665 -0.00063839665 -0.032363012 0.05900433
collatéraux -0.08354789 -0.049137086 0.018615438 -0.0480539 0.022442851 -0.0020974472 -0.056786884 0.07817804 0.00880264 -0.058924377
aujourd'hui -0.010292942 -0.0023298273 0.016668044 0.038134057 0.027743978 -0.013158379 -0.03492013 -0.010996908 0.018578628 -0.06042591
potager -0.0746949 -0.0015039196 0.086401425 -0.026402999 -0.056416146 -0.011360113 0.0007050137 -0.20787977 0.018817235 0.03319452
particulièrement -0.07725714 -0.003974676 0.0015798289 -0.011336986 0.003131053 0.008010279 -0.020669779 0.004123696 0.013103728 -0.01590597
scolastica 0.005320647 0.007815387 -0.05119923 0.015630998 0.07939152 0.020076146 -0.024412429 -0.019261923 -0.08946992 -0.02727451
poids -0.17284176 -0.09889144 0.0924764 -0.026446935 0.002656823 -0.17939107 -0.07689771 0.041623197 -0.042377524 -0.12548937
mtv 0.7497374 -0.61178297 -0.29415566 0.024524339 -0.4989697 -0.38624004 -0.14164105 0.15534669 0.08082147 -0.13858603
équipe -0.09723886 0.12076779 -0.0053676963 0.094978735 0.038624417 -0.03408232 0.050416887 0.06706556 0.13095252 0.04987058
apparition -0.10806441 0.016530473 0.008306588 -0.00052374 -0.005233659 -0.04813428 -0.030460076 0.034027055 -0.043658733 -0.030984154
réel -0.30121064 -0.12528393 0.066201136 0.0722958 -0.098015174 -0.11577984 0.113972776 0.10730039 -0.005956722 -0.12337226
inhérents -0.12143614 -0.09579615 0.053315885 -0.05679416 -0.026692718 -0.022803664 0.023266189 0.14474419 -0.00967107 -0.027761512
section -0.042296275 0.0279966 0.12561321 0.09333491 0.068546735 -0.051055294 0.035695985 0.04021494 -0.04817903 0.018551525
découvrit -0.11410991 0.051707804 -0.1203733 -0.039846644 -0.0068999114 0.0013959929 -0.015462356 -0.026493538 -0.10799376 0.043488298
virgin 0.119056106 -0.061150886 -0.025353307 0.15090783 -0.17263447 -0.13205653 -0.08052396 -0.025168851 0.021941556 -0.0761288
arctiques -0.049328197 -0.048486024 0.024890743 -0.09430201 -0.0020196903 0.002652158 -0.10863727 0.06751734 -0.025966763 0.049381968
croise -0.1364361 0.013670606 -0.1578671 -0.026521474 -0.10222753 0.047293454 -0.12007041 -0.045014765 0.06831884 -0.0137528945
hamme 0.042594954 -0.053423416 -0.14039901 0.068189465 0.022897456 -0.0072281994 -0.0810319 -0.105307885 -0.041292116 0.008480261
tard -0.2443102 0.022325074 -0.16812746 0.03495477 0.101042 -0.042762723 -0.08840111 -0.047319055 0.07777669 -0.051718466
conclusions -0.07225088 -0.014139227 -0.008962027 -0.0153021095 0.05184558 0.031157905 -0.009168853 0.09260493 0.033834133 -0.05221007
poste -0.15836501 0.057194844 0.010861777 0.08384144 0.081851326 -0.120756105 0.073967256 -0.0023320746 0.102266245 -0.012529989
agent -0.13108146 0.13894537 -0.09767461 0.1102258 -0.02687808 -0.12904961 0.11768857 0.11004114 0.098471746 -0.06878844
zoltan -0.009950651 -0.028284457 -0.063795656 0.09314022 0.059411936 0.045441076 -0.0943855 -0.05363668 -0.05942735 -0.038655907
kurosawa 0.024882171 -0.035574153 -0.08838416 -0.032180436 -0.10894129 -0.0046494 -0.061256718 -0.016640048 -0.05416451 -0.11193426
lightfoot -0.0292247 0.008880193 -0.0003168913 0.040871393 -0.014555551 -0.02370463 -0.059794944 0.031662203 -0.044053964 -0.015216006
volontaire -0.11759247 0.019659152 -0.0024920576 0.01735016 0.0018894217 -0.047896918 0.07103764 0.009781775 -0.002388497 -0.07495067
lectures -0.040821165 -0.049315784 0.047599647 -0.006339923 0.04475919 0.08323755 -0.07978793 0.01735806 -0.0048401784 -0.098556116
foreign 0.06623855 -0.10793346 -0.057100218 0.0864953 -0.048878696 -0.09855323 -0.049818933 0.21216208 -0.087812096 -0.07376827
shop 0.112688705 -0.041399933 0.040659696 0.3029939 -0.26007247 -0.19889371 -0.13984412 -0.065206945 0.1734976 0.20772439
ile -0.0962871 0.15705068 0.056081362 -0.039395615 -0.049558114 -0.0929528 -0.10887141 -0.47733322 0.012537212 0.0370271
quasiment -0.13060197 -0.06429008 -0.006846856 0.0022982708 0.008580754 -0.082560495 -0.079670586 -0.008966556 0.044166185 -0.048943028
low 0.21506819 -0.32637593 -0.14657232 0.41914654 -0.40518898 -0.4287121 -0.42592007 0.19647068 -0.18083768 -0.1291852
marché -0.11566817 -0.023836935 0.087779865 -0.0042898837 0.007209061 -0.1391588 0.010236424 -0.0023768488 0.087926306 0.046152826
essais -0.10663426 -0.061337948 0.10573906 -0.024435414 -0.01929459 -0.012379432 -0.15501149 0.10735625 0.0051621855 0.0056375596
trait -0.19813244 -0.046824858 0.016055614 -0.05204696 -0.048324924 -0.14522104 -0.0049992613 0.044369854 -0.14352643 -0.11006097
perception -0.104002535 -0.017566293 0.04118677 0.003989228 -0.013890651 -0.02017437 0.053992562 0.06401619 -0.07587364 -0.07788961
gouvernementale -0.050912373 0.016319 0.012953294 -0.0028615477 0.033780888 -0.019425366 0.061518505 0.074453525 0.0024580148 -0.022022497
utilisée -0.11756516 -0.018931428 0.028979082 0.01657775 -0.012981297 -0.10371521 -0.0067048203 0.054233953 -0.039728314 0.01782788
54 1.0106891 -0.12074057 0.14466992 0.28718516 1.0652306 -0.4960614 -0.96577406 -0.19747765 0.21899092 -1.1773329
perú 0.042707264 0.030533288 0.04719162 -0.009857511 0.067104384 0.021898396 0.012958895 0.041732267 0.009037645 0.029426677
